{"learner":{"attributes":{"best_iteration":"199","best_ntree_limit":"200","scikit_learn":"{\"use_label_encoder\": true, \"n_estimators\": 200, \"objective\": \"binary:logistic\", \"max_depth\": 20, \"learning_rate\": 0.1, \"verbosity\": null, \"booster\": null, \"tree_method\": null, \"gamma\": null, \"min_child_weight\": null, \"max_delta_step\": null, \"subsample\": null, \"colsample_bytree\": null, \"colsample_bylevel\": null, \"colsample_bynode\": null, \"reg_alpha\": null, \"reg_lambda\": null, \"scale_pos_weight\": null, \"base_score\": null, \"missing\": NaN, \"num_parallel_tree\": null, \"random_state\": null, \"n_jobs\": null, \"monotone_constraints\": null, \"interaction_constraints\": null, \"importance_type\": null, \"gpu_id\": null, \"validate_parameters\": null, \"predictor\": null, \"enable_categorical\": false, \"classes_\": [0, 1], \"n_classes_\": 2, \"_le\": {\"classes_\": [0, 1]}, \"_estimator_type\": \"classifier\"}"},"feature_names":[],"feature_types":[],"gradient_booster":{"model":{"gbtree_model_param":{"num_trees":"200","size_leaf_vector":"0"},"tree_info":[0,0,0,0,0,0,0,0,0,0,0,0,0,0,0,0,0,0,0,0,0,0,0,0,0,0,0,0,0,0,0,0,0,0,0,0,0,0,0,0,0,0,0,0,0,0,0,0,0,0,0,0,0,0,0,0,0,0,0,0,0,0,0,0,0,0,0,0,0,0,0,0,0,0,0,0,0,0,0,0,0,0,0,0,0,0,0,0,0,0,0,0,0,0,0,0,0,0,0,0,0,0,0,0,0,0,0,0,0,0,0,0,0,0,0,0,0,0,0,0,0,0,0,0,0,0,0,0,0,0,0,0,0,0,0,0,0,0,0,0,0,0,0,0,0,0,0,0,0,0,0,0,0,0,0,0,0,0,0,0,0,0,0,0,0,0,0,0,0,0,0,0,0,0,0,0,0,0,0,0,0,0,0,0,0,0,0,0,0,0,0,0,0,0,0,0,0,0,0,0],"trees":[{"base_weights":[-1.0445722E0,4.3074173E-1,-1.6166474E0,1.5003589E0,-3.2723576E-1,-1.9404931E0,-1.8045112E-1,1.7789884E0,-1.75E0,1.989071E0,-1.6935484E0,-1.9427276E0,1E0,-1.8371335E0,8.51927E-1,-1.7837838E0,1.8785943E0,-1.8148148E0,-0E0,-1.726607E0,1.4666667E0,-1.9449645E0,1E0,-1.8771331E0,-8.75E-1,-1.752809E0,1.4187192E0,-1.4666667E0,1.9129734E0,-1.7571781E0,1.4285715E0,-1.1111112E0,-1.9470613E0,-0E0,-1.5555556E0,-7.368421E-1,-1.8282208E0,1.667107E0,-1.8644068E0,1.9574468E0,-7.826087E-1,-1.7742739E0,-2.2222222E-1,-1.4545455E0,2.2222222E-1,-1.9530503E0,-1.5692308E0,-7.692308E-1,1.1111112E0,-1.5384616E-1,-1.2E0,-1.1E0,1.8113731E0,-7.692308E-1,1.9802144E0,-1.5294118E0,8E-1,-1.8498659E0,-1.637149E0,-9.0909094E-1,5.4545456E-1,-1.6363636E0,-4.6153846E-1,-1.1111112E0,-0E0,-1E0,6.666667E-1,-1.6923077E0,-0E0,-1.4285715E0,1.8977273E0,-7.692308E-1,-1.7009345E0,5E-1,-1.1111112E0,8E-1,-6.666667E-1,1.9312321E0,-1.2E0,-9.411765E-1,2.2222222E-1,-1.7425742E0,-8.5714287E-1,-1E0,-0E0,2.2222222E-1,-1.1724138E0,-1.8586572E0,-1.424E0,1.5384616E-1,-1.3684211E0,-1.3333334E0,-2.2222222E-1,-6.666667E-1,-1.7241379E0,5E-1,-2.2222222E-1,-9.714286E-1,5.4545456E-1,-1.8769231E0,-1.0769231E0,5E-1,-1.2258065E0,-0E0,-1.2727273E0,-1.5E0,-1.8181819E-1,-2.2222222E-1,-1.5294118E0],"categories":[],"categories_nodes":[],"categories_segments":[],"categories_sizes":[],"default_left":[true,true,true,true,true,true,true,true,true,false,true,true,false,true,true,false,true,false,false,true,false,true,false,false,true,true,true,false,true,true,false,true,true,true,false,true,false,true,false,true,true,true,true,false,false,false,true,true,false,true,false,true,true,false,false,false,false,false,true,false,false,false,true,false,false,false,false,false,true,false,true,true,true,false,false,false,true,false,false,true,false,true,true,false,false,false,true,false,true,true,false,false,false,true,true,false,false,true,false,false,true,false,true,false,true,false,false,false,false],"id":0,"left_children":[1,3,5,7,9,11,13,15,17,-1,19,21,-1,23,25,-1,27,-1,-1,29,-1,31,-1,-1,33,35,37,-1,39,41,-1,43,45,47,-1,49,-1,51,-1,53,55,57,59,-1,-1,-1,61,63,-1,65,-1,67,69,-1,-1,-1,-1,-1,71,-1,-1,-1,73,-1,-1,-1,-1,-1,75,-1,77,79,81,-1,-1,-1,83,-1,-1,85,-1,87,89,-1,-1,-1,91,-1,93,95,-1,-1,-1,97,99,-1,-1,101,-1,-1,103,-1,105,-1,107,-1,-1,-1,-1],"loss_changes":[2.5333013E3,6.8090936E2,1.0054414E3,3.1850433E2,1.5604498E3,1.3536621E1,6.839838E2,1.1735394E2,3.1759262E0,0E0,3.4918762E1,1.3553711E1,0E0,4.2649536E0,3.6640558E2,0E0,3.880298E1,0E0,0E0,3.2146667E1,0E0,9.1845703E-1,0E0,0E0,4.7638893E0,2.0623016E0,1.6865228E2,0E0,3.872522E1,7.602783E0,0E0,3.4141417E0,9.1015625E-1,4.7008543E0,0E0,1.0979757E0,0E0,7.754108E1,0E0,2.0488647E1,8.019438E0,9.411621E-2,2.8686867E0,0E0,0E0,0E0,1.6615372E0,8.547008E-1,0E0,2.9230769E0,0E0,6.5153847E0,5.3141846E1,0E0,0E0,0E0,0E0,0E0,5.099579E0,0E0,0E0,0E0,2.58547E0,0E0,0E0,0E0,0E0,0E0,2.9333334E0,0E0,2.058429E1,1.8712921E0,2.265808E0,0E0,0E0,0E0,6.666666E-1,0E0,0E0,2.547216E0,0E0,1.0883789E0,3.8288035E0,0E0,0E0,0E0,8.122606E-1,0E0,5.9538383E0,5.3418803E-1,0E0,0E0,0E0,4.4086585E0,1.2944031E-1,0E0,0E0,3.8880186E0,0E0,0E0,1.3706293E0,0E0,1.9457474E0,0E0,1.1431961E0,0E0,0E0,0E0,0E0],"parents":[2147483647,0,0,1,1,2,2,3,3,4,4,5,5,6,6,7,7,8,8,10,10,11,11,13,13,14,14,16,16,19,19,21,21,24,24,25,25,26,26,28,28,29,29,31,31,32,32,33,33,35,35,37,37,39,39,40,40,41,41,42,42,46,46,47,47,49,49,51,51,52,52,58,58,62,62,68,68,70,70,71,71,72,72,76,76,79,79,81,81,82,82,86,86,88,88,89,89,93,93,94,94,97,97,100,100,102,102,104,104],"right_children":[2,4,6,8,10,12,14,16,18,-1,20,22,-1,24,26,-1,28,-1,-1,30,-1,32,-1,-1,34,36,38,-1,40,42,-1,44,46,48,-1,50,-1,52,-1,54,56,58,60,-1,-1,-1,62,64,-1,66,-1,68,70,-1,-1,-1,-1,-1,72,-1,-1,-1,74,-1,-1,-1,-1,-1,76,-1,78,80,82,-1,-1,-1,84,-1,-1,86,-1,88,90,-1,-1,-1,92,-1,94,96,-1,-1,-1,98,100,-1,-1,102,-1,-1,104,-1,106,-1,108,-1,-1,-1,-1],"split_conditions":[-5.934731E-1,-1.0585942E0,6.823441E-1,-8.2344866E-1,-1.9992555E0,2.1828675E0,5.1779467E-1,-1.5815427E0,1.5317388E0,1.989071E-1,2.1828675E0,1.7921201E0,1E-1,1.431592E0,3.0994898E-1,-1.7837839E-1,-1.512721E0,-1.8148148E-1,-0E0,1.7620761E0,1.4666668E-1,-5.5330783E-1,1E-1,-1.8771331E-1,-5.1242653E-2,-1.0585942E0,2.0492535E0,-1.4666668E-1,-7.51606E-1,1.6257783E0,1.4285715E-1,8.5074115E-1,1.372502E0,-2.1190351E-1,-1.5555556E-1,1.3657988E0,-1.828221E-1,4.106573E-1,-1.8644069E-1,-1.0955381E0,6.604624E-1,-1.2361165E0,-2.2082853E-1,-1.4545456E-1,2.2222223E-2,-1.9530503E-1,1.4508336E0,-4.328122E-1,1.1111112E-1,-1.1822368E0,-1.20000005E-1,1.1592588E0,-2.4822886E-1,-7.692308E-2,1.9802144E-1,-1.5294118E-1,8.0000006E-2,-1.8498659E-1,-1.1959512E0,-9.090909E-2,5.454546E-2,-1.6363637E-1,2.4122828E-1,-1.1111112E-1,-0E0,-1E-1,6.666667E-2,-1.6923077E-1,1.3050462E0,-1.4285715E-1,1.372502E0,1.372502E0,1.3342037E0,5E-2,-1.1111112E-1,8.0000006E-2,1.6966602E-1,1.931232E-1,-1.20000005E-1,-6.845654E-1,2.2222223E-2,-5.057913E-2,-1.0352905E0,-1E-1,-0E0,2.2222223E-2,8.6768425E-1,-1.8586573E-1,3.8005167E-1,1.3925185E0,-1.3684212E-1,-1.3333334E-1,-2.2222223E-2,3.1996366E-1,1.3815186E0,5E-2,-2.2222223E-2,-3.0549793E-2,5.454546E-2,-1.8769231E-1,-2.4822886E-1,5E-2,-6.7380345E-1,-0E0,-6.845654E-1,-1.5E-1,-1.818182E-2,-2.2222223E-2,-1.5294118E-1],"split_indices":[0,2,4,1,0,2,1,1,3,0,2,3,0,3,3,0,3,0,0,3,0,0,0,0,0,2,4,0,3,1,0,3,2,0,0,4,0,0,0,0,3,0,3,0,0,0,1,0,0,3,0,1,2,0,0,0,0,0,0,0,0,0,7,0,0,0,0,0,1,0,2,2,1,0,0,0,0,0,0,4,0,3,0,0,0,0,1,0,3,1,0,0,0,3,3,0,0,3,0,0,2,0,0,0,4,0,0,0,0],"split_type":[0,0,0,0,0,0,0,0,0,0,0,0,0,0,0,0,0,0,0,0,0,0,0,0,0,0,0,0,0,0,0,0,0,0,0,0,0,0,0,0,0,0,0,0,0,0,0,0,0,0,0,0,0,0,0,0,0,0,0,0,0,0,0,0,0,0,0,0,0,0,0,0,0,0,0,0,0,0,0,0,0,0,0,0,0,0,0,0,0,0,0,0,0,0,0,0,0,0,0,0,0,0,0,0,0,0,0,0,0],"sum_hessian":[2.99975E3,8.3825E2,2.1615E3,3.4725E2,4.91E2,1.7635E3,3.98E2,3.2025E2,2.7E1,1.82E2,3.09E2,1.7625E3,1E0,1.525E2,2.455E2,8.25E0,3.12E2,2.6E1,1E0,3.0625E2,2.75E0,1.7615E3,1E0,1.455E2,7E0,4.35E1,2.02E2,2.75E0,3.0925E2,3.0375E2,2.5E0,5.75E0,1.75575E3,3.5E0,3.5E0,3.75E0,3.975E1,1.8825E2,1.375E1,3.045E2,4.75E0,3.0025E2,3.5E0,4.5E0,1.25E0,1.72425E3,3.15E1,2.25E0,1.25E0,2.25E0,1.5E0,9E0,1.7925E2,2.25E0,3.0225E2,3.25E0,1.5E0,1.855E2,1.1475E2,1.75E0,1.75E0,2.925E1,2.25E0,1.25E0,1E0,1E0,1.25E0,5.5E0,3.5E0,4.25E0,1.75E2,8.75E0,1.06E2,1E0,1.25E0,1.5E0,2E0,1.735E2,1.5E0,7.5E0,1.25E0,1E2,6E0,1E0,1E0,1.25E0,6.25E0,6.975E1,3.025E1,2.25E0,3.75E0,5E0,1.25E0,9.5E0,2.075E1,1E0,1.25E0,7.75E0,1.75E0,1.525E1,5.5E0,1E0,6.75E0,1E0,4.5E0,5E0,1.75E0,1.25E0,3.25E0],"tree_param":{"num_deleted":"0","num_feature":"8","num_nodes":"109","size_leaf_vector":"0"}},{"base_weights":[-9.4996023E-1,3.9010358E-1,-1.469762E0,1.3622707E0,-2.9827562E-1,-1.7638096E0,-1.666838E-1,1.6161528E0,-1.5940638E0,1.8095846E0,-1.5392096E0,-1.7658963E0,6.4528626E-1,-1.6703634E0,7.705382E-1,-1.6366605E0,1.7073091E0,-1.6535724E0,-0E0,-1.569743E0,1.3646661E0,-1.7733623E0,-1.328468E0,-1.7060858E0,-8.099961E-1,-1.597734E0,1.2865031E0,-1.3646661E0,1.7390953E0,-1.598015E0,1.33154E0,-1.0220416E0,-1.775282E0,-1.461245E0,-6.168446E-1,-3.317045E-8,-1.4415667E0,-6.9685507E-1,-1.6638674E0,1.5129793E0,-1.7048389E0,1.7799063E0,-7.198605E-1,-1.6135705E0,-2.0832728E-1,-1.3415316E0,2.0989144E-1,-1.5089937E0,-3.821225E-1,4.5453715E-1,-1.4173322E0,-7.274014E-1,1.051245E0,-1.4891192E-1,-1.1305224E0,-1.013615E0,1.6453397E0,-7.167359E-1,1.800971E0,-1.4190052E0,7.5274736E-1,-8.5239863E-1,5.109941E-1,-3.032493E-1,1.0921857E0,-1.0512451E0,-0E0,-1.5588523E0,-4.453601E-3,-1.3185489E0,1.7247666E0,7.5274736E-1,-6.338884E-1,1.7559888E0,-1.1305224E0,1.7718352E0,1.0140597E0,1.392051E0,5.965395E-2],"categories":[],"categories_nodes":[],"categories_segments":[],"categories_sizes":[],"default_left":[true,true,true,true,true,true,true,true,true,false,true,true,false,true,true,false,true,false,false,true,false,true,true,false,true,true,true,false,true,true,false,true,false,true,true,true,false,true,false,true,false,true,true,false,true,false,false,false,false,true,false,true,false,false,false,true,true,false,false,false,false,false,false,false,false,false,false,false,true,false,true,false,false,true,false,false,true,false,false],"id":1,"left_children":[1,3,5,7,9,11,13,15,17,-1,19,21,-1,23,25,-1,27,-1,-1,29,-1,31,33,-1,35,37,39,-1,41,43,-1,45,-1,47,49,51,-1,53,-1,55,-1,57,59,-1,61,-1,-1,-1,-1,63,-1,65,-1,-1,-1,67,69,-1,-1,-1,-1,-1,-1,-1,-1,-1,-1,-1,71,-1,73,-1,-1,75,-1,-1,77,-1,-1],"loss_changes":[2.0716501E3,5.5704144E2,8.206387E2,2.61511E2,1.2786759E3,9.926758E0,5.587422E2,9.714575E1,2.6358948E0,0E0,2.9412598E1,3.3486328E0,0E0,3.2957458E0,3.0065344E2,0E0,3.2645386E1,0E0,0E0,2.7131653E1,0E0,6.582031E-1,2.2448807E0,0E0,4.0778303E0,1.4715195E0,1.3888757E2,0E0,3.2117615E1,6.199707E0,0E0,2.928915E0,0E0,8.3169556E-1,6.618844E0,4.199836E0,0E0,9.581678E-1,0E0,6.439545E1,0E0,1.7202454E1,6.9661956E0,0E0,2.5181193E0,0E0,0E0,0E0,0E0,2.1365943E0,0E0,7.6467717E-1,0E0,0E0,0E0,5.4711246E0,4.432251E1,0E0,0E0,0E0,0E0,0E0,0E0,0E0,0E0,0E0,0E0,0E0,2.6195645E0,0E0,1.7531433E1,0E0,0E0,2.3596191E-1,0E0,0E0,2.0647864E0,0E0,0E0],"parents":[2147483647,0,0,1,1,2,2,3,3,4,4,5,5,6,6,7,7,8,8,10,10,11,11,13,13,14,14,16,16,19,19,21,21,22,22,24,24,25,25,26,26,28,28,29,29,31,31,33,33,34,34,35,35,37,37,39,39,41,41,42,42,44,44,49,49,51,51,55,55,56,56,68,68,70,70,73,73,76,76],"right_children":[2,4,6,8,10,12,14,16,18,-1,20,22,-1,24,26,-1,28,-1,-1,30,-1,32,34,-1,36,38,40,-1,42,44,-1,46,-1,48,50,52,-1,54,-1,56,-1,58,60,-1,62,-1,-1,-1,-1,64,-1,66,-1,-1,-1,68,70,-1,-1,-1,-1,-1,-1,-1,-1,-1,-1,-1,72,-1,74,-1,-1,76,-1,-1,78,-1,-1],"split_conditions":[-5.934731E-1,-1.0585942E0,6.823441E-1,-8.2344866E-1,-1.9992555E0,1.7120028E0,5.1779467E-1,-1.5815427E0,1.5317388E0,1.8095846E-1,2.1828675E0,1.372502E0,6.452863E-2,1.431592E0,3.0994898E-1,-1.6366605E-1,-1.512721E0,-1.6535725E-1,-0E0,1.7620761E0,1.3646661E-1,-5.5330783E-1,1.0009612E0,-1.7060858E-1,-5.1242653E-2,-1.0585942E0,2.0492535E0,-1.3646661E-1,-7.51606E-1,1.6257783E0,1.33154E-1,8.5074115E-1,-1.775282E-1,1.4508336E0,1.3014014E0,-2.1190351E-1,-1.4415668E-1,1.3657988E0,-1.6638674E-1,4.106573E-1,-1.7048389E-1,-1.0955381E0,6.604624E-1,-1.6135705E-1,-2.2082853E-1,-1.3415317E-1,2.0989144E-2,-1.5089938E-1,-3.821225E-2,1.1111226E0,-1.4173321E-1,-4.328122E-1,1.05124496E-1,-1.4891192E-2,-1.1305224E-1,1.1592588E0,-2.4822886E-1,-7.1673594E-2,1.800971E-1,-1.4190052E-1,7.5274736E-2,-8.5239865E-2,5.109941E-2,-3.032493E-2,1.09218575E-1,-1.0512451E-1,-0E0,-1.5588523E-1,1.3050462E0,-1.3185489E-1,1.372502E0,7.5274736E-2,-6.338885E-2,1.2139616E0,-1.1305224E-1,1.7718352E-1,2.4122828E-1,1.392051E-1,5.965395E-3],"split_indices":[0,2,4,1,0,3,1,1,3,0,2,2,0,3,3,0,3,0,0,3,0,0,3,0,0,2,4,0,3,1,0,3,0,1,3,0,0,4,0,0,0,0,3,0,3,0,0,0,0,3,0,0,0,0,0,1,2,0,0,0,0,0,0,0,0,0,0,0,1,0,2,0,0,0,0,0,7,0,0],"split_type":[0,0,0,0,0,0,0,0,0,0,0,0,0,0,0,0,0,0,0,0,0,0,0,0,0,0,0,0,0,0,0,0,0,0,0,0,0,0,0,0,0,0,0,0,0,0,0,0,0,0,0,0,0,0,0,0,0,0,0,0,0,0,0,0,0,0,0,0,0,0,0,0,0,0,0,0,0,0,0],"sum_hessian":[2.9722605E3,8.3076746E2,2.141493E3,3.4398868E2,4.8677878E2,1.7469332E3,3.9455978E2,3.172016E2,2.6787088E1,1.8021164E2,3.0656714E2,1.7456881E3,1.2451353E0,1.5119698E2,2.4336281E2,8.184719E0,3.0901688E2,2.5787088E1,1E0,3.0383188E2,2.7352638E0,1.71339E3,3.2298096E1,1.4422577E2,6.971212E0,4.316042E1,2.0020238E2,2.7352638E0,3.0628162E2,3.013446E2,2.487288E0,5.726128E0,1.7076638E3,2.6331652E1,5.9664416E0,3.4922998E0,3.4789124E0,3.7407293E0,3.941969E1,1.8657118E2,1.3631202E1,3.0155295E2,4.728671E0,2.978495E2,3.495088E0,4.476282E0,1.2498457E0,2.483443E1,1.4972214E0,2.736309E0,3.2301326E0,2.2461498E0,1.2461499E0,2.2461164E0,1.4946129E0,8.955915E0,1.7761526E2,2.246675E0,2.9930627E2,3.2310684E0,1.4976026E0,1.7463892E0,1.748699E0,1.4900033E0,1.2463058E0,1.2461498E0,1E0,5.4608083E0,3.4951067E0,4.2283897E0,1.7338687E2,1.4976026E0,1.9975042E0,1.7189226E2,1.4946129E0,1.669386E2,4.9536676E0,3.219884E0,1.7337836E0],"tree_param":{"num_deleted":"0","num_feature":"8","num_nodes":"79","size_leaf_vector":"0"}},{"base_weights":[-8.773617E-1,3.5978988E-1,-1.3577547E0,1.2571832E0,-2.7407613E-1,-1.6295372E0,-1.5572408E-1,1.4925936E0,-1.4714065E0,1.6744173E0,-1.4145997E0,-1.6315284E0,6.1033404E-1,-1.5412686E0,7.082323E-1,-1.5205624E0,1.577495E0,-1.5274954E0,-0E0,-1.4431844E0,1.2789599E0,-1.6385756E0,-1.2225107E0,-1.5741448E0,-7.54892E-1,-1.4752396E0,1.1854911E0,-1.2789601E0,1.6074637E0,-1.4696928E0,1.2494466E0,-1.6561426E0,-1.5345067E0,-1.3446814E0,-5.696388E-1,6.665691E-8,-1.3473612E0,-6.563991E-1,-1.5357603E0,1.3952496E0,-1.5811324E0,1.6457436E0,-6.666977E-1,-1.4841717E0,-1.9574189E-1,-1.4761665E0,-1.666068E0,-9.324906E-2,-1.5439812E0,-1.4126871E0,-5.4021066E-1,4.3143845E-1,-1.325913E0,-6.894615E-1,9.9787635E-1,-1.3861926E-1,-1.0694325E0,-1.5564768E0,-4.8262036E-1,-9.383131E-1,1.518922E0,-6.690928E-1,1.6657261E0,-1.3273071E0,7.0957786E-1,-1.5542297E0,-1.3585376E0,-8.012199E-1,4.7913763E-1,-6.919142E-1,-1.5034306E0,-1.0479236E0,-1.605905E0,2.8918615E-1,-1.0713004E0,-2.8558823E-1,1.0345732E0,-9.978762E-1,-0E0,-1.4514992E0,-1.3496889E-3,-1.2260662E0,1.5933806E0,-5.6764513E-1,-1.4185487E0,-1.1797937E0,2.2574419E-1,-1.5726486E0,-1.069988E0,-1.4577942E0,1.2692343E0,7.0957786E-1,-5.92713E-1,1.6230693E0,-1.0694325E0,-1.2102708E0,-2.1321689E-1,-1.4574877E0,-6.589951E-1,4.139297E-1,-1.4526097E0,1.6374838E0,9.470437E-1,1.7801063E-1,-1.0653346E0,-1.5653353E0,-1.1673641E0,2.5956783E-1,-1.1546987E0,-1.5228451E0,-4.7078612E-1,1.3046385E0,5.589236E-2,6.1733E-1,-2.5049525E-1,-1.6015888E0,-9.0240514E-1,-4.6766075E-1,-1.4542011E0,-1.0571774E0,7.510548E-1,-2.282077E-1,-1.2414627E0,-7.582256E-1,6.144741E-1,-1.5973885E0,-8.7397575E-1,-1.3401865E0,-1.17778495E-1,-1.2925283E0,-2.1992044E-1,3.905646E-1,-9.721155E-1,3.503392E-1,-6.460533E-1,-8.6693175E-2,8.013779E-1],"categories":[],"categories_nodes":[],"categories_segments":[],"categories_sizes":[],"default_left":[true,true,true,true,true,true,true,true,true,false,true,true,false,true,true,false,true,false,false,true,false,true,true,false,true,true,true,false,true,true,false,true,true,true,true,true,false,true,true,true,false,true,true,true,true,true,false,false,false,true,true,true,false,true,false,false,false,false,false,true,true,false,false,false,false,false,true,false,false,true,true,true,false,false,false,false,false,false,false,false,true,false,true,true,true,false,false,false,true,false,false,false,false,true,false,false,true,true,true,false,true,false,true,true,false,true,true,false,false,false,false,false,false,false,true,false,true,true,true,false,false,false,false,true,false,false,true,false,true,false,true,true,false,false,false,false,false],"id":2,"left_children":[1,3,5,7,9,11,13,15,17,-1,19,21,-1,23,25,-1,27,-1,-1,29,-1,31,33,-1,35,37,39,-1,41,43,-1,45,47,49,51,53,-1,55,57,59,-1,61,63,65,67,69,-1,-1,-1,71,73,75,-1,77,-1,-1,-1,-1,-1,79,81,-1,-1,-1,-1,-1,83,-1,-1,85,87,89,-1,-1,-1,-1,-1,-1,-1,-1,91,-1,93,95,97,-1,-1,-1,99,-1,-1,-1,-1,101,-1,-1,103,105,107,-1,109,-1,111,113,-1,115,117,-1,-1,-1,-1,-1,-1,-1,119,-1,121,123,125,-1,-1,-1,-1,127,-1,-1,129,-1,131,-1,133,135,-1,-1,-1,-1,-1],"loss_changes":[1.7254463E3,4.625665E2,6.827993E2,2.1837543E2,1.06249E3,8.600586E0,4.6395425E2,8.178418E1,2.2475662E0,0E0,2.5055664E1,2.9082031E0,0E0,2.6591797E0,2.5064798E2,0E0,2.7934326E1,0E0,0E0,2.3160461E1,0E0,5.15625E-1,1.8500862E0,0E0,3.5303993E0,1.1371536E0,1.1627438E2,0E0,2.7179565E1,5.1748047E0,0E0,7.373047E-2,3.3395996E0,7.081528E-1,5.7997766E0,3.7640352E0,0E0,8.6239266E-1,1.11953735E-1,5.4307434E1,0E0,1.4757141E1,6.09813E0,4.658203E-1,2.2151957E0,7.3202515E-1,0E0,0E0,0E0,2.1175385E-2,1.9463775E0,1.9068516E0,0E0,6.879972E-1,0E0,0E0,0E0,0E0,0E0,4.7297287E0,3.759851E1,0E0,0E0,0E0,0E0,0E0,4.547165E0,0E0,0E0,2.3424873E0,6.949158E-1,1.2535224E1,0E0,0E0,0E0,0E0,0E0,0E0,0E0,0E0,2.305449E0,0E0,1.5193176E1,1.933152E0,2.1199036E0,0E0,0E0,0E0,8.573757E0,0E0,0E0,0E0,0E0,9.359741E-2,0E0,0E0,2.6614177E0,1.2467346E0,3.443487E0,0E0,6.8157196E-2,0E0,1.8055401E0,1.2725258E0,0E0,2.0558167E-1,5.4528465E0,0E0,0E0,0E0,0E0,0E0,0E0,0E0,3.7974813E0,0E0,1.0544701E0,3.7229843E0,3.6514664E-1,0E0,0E0,0E0,0E0,3.052586E0,0E0,0E0,1.4689074E0,0E0,2.6367576E0,0E0,1.1264416E0,8.481863E-1,0E0,0E0,0E0,0E0,0E0],"parents":[2147483647,0,0,1,1,2,2,3,3,4,4,5,5,6,6,7,7,8,8,10,10,11,11,13,13,14,14,16,16,19,19,21,21,22,22,24,24,25,25,26,26,28,28,29,29,31,31,32,32,33,33,34,34,35,35,37,37,38,38,39,39,41,41,42,42,43,43,44,44,45,45,49,49,50,50,51,51,53,53,59,59,60,60,66,66,69,69,70,70,71,71,80,80,82,82,83,83,84,84,88,88,93,93,96,96,97,97,98,98,100,100,102,102,103,103,105,105,106,106,114,114,116,116,117,117,118,118,123,123,126,126,128,128,130,130,131,131],"right_children":[2,4,6,8,10,12,14,16,18,-1,20,22,-1,24,26,-1,28,-1,-1,30,-1,32,34,-1,36,38,40,-1,42,44,-1,46,48,50,52,54,-1,56,58,60,-1,62,64,66,68,70,-1,-1,-1,72,74,76,-1,78,-1,-1,-1,-1,-1,80,82,-1,-1,-1,-1,-1,84,-1,-1,86,88,90,-1,-1,-1,-1,-1,-1,-1,-1,92,-1,94,96,98,-1,-1,-1,100,-1,-1,-1,-1,102,-1,-1,104,106,108,-1,110,-1,112,114,-1,116,118,-1,-1,-1,-1,-1,-1,-1,120,-1,122,124,126,-1,-1,-1,-1,128,-1,-1,130,-1,132,-1,134,136,-1,-1,-1,-1,-1],"split_conditions":[-5.934731E-1,-1.0585942E0,6.823441E-1,-8.2344866E-1,-1.9992555E0,1.7120028E0,5.1779467E-1,-1.5815427E0,1.5317388E0,1.6744173E-1,2.1828675E0,1.372502E0,6.1033405E-2,1.431592E0,3.0994898E-1,-1.5205625E-1,-1.512721E0,-1.5274954E-1,-0E0,1.7620761E0,1.27896E-1,-1.1107028E-3,1.0009612E0,-1.5741448E-1,-5.1242653E-2,-1.0585942E0,2.0492535E0,-1.2789601E-1,-7.51606E-1,1.6257783E0,1.24944665E-1,-1.0585942E0,-5.5330783E-1,1.3050462E0,1.3014014E0,-2.1190351E-1,-1.3473612E-1,1.3657988E0,2.5987566E-1,4.106573E-1,-1.5811324E-1,-1.0955381E0,6.604624E-1,-1.2361165E0,-2.2082853E-1,-5.1314265E-1,-1.666068E-1,-9.324906E-3,-1.5439813E-1,-7.8165007E-1,5.5123556E-1,1.1111226E0,-1.3259129E-1,-4.328122E-1,9.978764E-2,-1.3861926E-2,-1.0694325E-1,-1.5564768E-1,-4.8262037E-2,1.1592588E0,-2.4822886E-1,-6.6909276E-2,1.6657262E-1,-1.3273071E-1,7.095779E-2,-1.5542297E-1,-1.1959512E0,-8.012199E-2,4.7913764E-2,-8.3172333E-1,1.0310051E0,-9.318701E-1,-1.6059051E-1,2.8918615E-2,-1.0713004E-1,-2.8558824E-2,1.03457324E-1,-9.978762E-2,-0E0,-1.4514993E-1,1.3050462E0,-1.2260663E-1,1.372502E0,-2.4822886E-1,1.3342037E0,-1.1797937E-1,2.257442E-2,-1.5726487E-1,1.1011078E0,-1.4577942E-1,1.2692343E-1,7.095779E-2,-5.9271302E-2,1.2139616E0,-1.0694325E-1,-1.21027075E-1,1.0110344E0,-5.057913E-2,-1.0352905E0,4.139297E-2,1.5383059E0,1.6374838E-1,2.4122828E-1,-2.1081385E-1,-1.0653346E-1,8.093693E-1,3.8005167E-1,2.5956783E-2,-1.1546987E-1,-1.5228452E-1,-4.7078613E-2,1.3046385E-1,5.589236E-3,6.1733004E-2,5.9035975E-1,-1.6015889E-1,-9.318701E-1,3.1996366E-1,1.3815186E0,-1.0571774E-1,7.510548E-2,-2.282077E-2,-1.24146275E-1,-8.344643E-1,6.144741E-2,-1.5973885E-1,-4.7355914E-1,-1.3401864E-1,2.2117779E-2,-1.2925284E-1,1.3874763E-1,-6.7766136E-1,-9.7211555E-2,3.5033923E-2,-6.460533E-2,-8.669318E-3,8.013779E-2],"split_indices":[0,2,4,1,0,3,1,1,3,0,2,2,0,3,3,0,3,0,0,3,0,4,3,0,0,2,4,0,3,1,0,2,0,1,3,0,0,4,3,0,0,0,3,0,3,0,0,0,0,3,0,3,0,0,0,0,0,0,0,1,2,0,0,0,0,0,0,0,0,3,3,3,0,0,0,0,0,0,0,0,1,0,2,2,1,0,0,0,3,0,0,0,0,0,0,0,5,3,0,0,1,0,7,3,0,1,3,0,0,0,0,0,0,0,3,0,3,3,3,0,0,0,0,0,0,0,1,0,1,0,1,1,0,0,0,0,0],"split_type":[0,0,0,0,0,0,0,0,0,0,0,0,0,0,0,0,0,0,0,0,0,0,0,0,0,0,0,0,0,0,0,0,0,0,0,0,0,0,0,0,0,0,0,0,0,0,0,0,0,0,0,0,0,0,0,0,0,0,0,0,0,0,0,0,0,0,0,0,0,0,0,0,0,0,0,0,0,0,0,0,0,0,0,0,0,0,0,0,0,0,0,0,0,0,0,0,0,0,0,0,0,0,0,0,0,0,0,0,0,0,0,0,0,0,0,0,0,0,0,0,0,0,0,0,0,0,0,0,0,0,0,0,0,0,0,0,0],"sum_hessian":[2.9014104E3,8.1158765E2,2.0898228E3,3.355503E2,4.7603735E2,1.7041534E3,3.8566946E2,3.093168E2,2.6233482E1,1.7558917E2,3.0044818E2,1.7029113E3,1.2421972E0,1.4782137E2,2.3784811E2,8.013328E0,3.0130347E2,2.5233482E1,1E0,2.9775256E2,2.695615E0,1.6711127E3,3.1798492E1,1.409278E2,6.8935657E0,4.228805E1,1.9556006E2,2.6956148E0,2.9860785E2,2.952996E2,2.452984E0,1.4170049E3,2.5410788E2,2.5893456E1,5.9050364E0,3.4710026E0,3.4225628E0,3.7256854E0,3.8562366E1,1.8223885E2,1.3321213E1,2.939365E2,4.671374E0,2.9181796E2,3.4816213E0,8.188642E1,1.3351184E3,1.7303567E0,2.5237752E2,2.317806E1,2.715395E0,2.7260695E0,3.1789668E0,2.2355013E0,1.2355013E0,2.2458699E0,1.4798156E0,3.7349712E1,1.212653E0,8.840531E0,1.7339832E2,2.2376251E0,2.9169885E2,3.180379E0,1.4909948E0,1.800465E2,1.1177147E2,1.736495E0,1.7451262E0,3.6373122E0,7.824911E1,1.0250445E1,1.2927614E1,1.2378085E0,1.4775864E0,1.48598E0,1.2400894E0,1.2355013E0,1E0,5.357185E0,3.4833467E0,4.1708145E0,1.692275E2,8.620466E0,1.03151E2,2.1882546E0,1.4490576E0,6.520759E1,1.3041517E1,9.024939E0,1.2255071E0,1.4909948E0,1.9923518E0,1.6774768E2,1.4798156E0,2.2059937E0,6.4144726E0,9.724671E1,5.904289E0,2.6566055E0,1.03849125E1,1.6285301E2,4.894665E0,4.938285E0,1.4761877E0,6.76892E1,2.9557512E1,2.2364335E0,3.6678553E0,9.177364E0,1.2075479E0,3.161892E0,1.732773E0,2.2207925E0,2.717492E0,6.283693E1,4.8522725E0,9.35865E0,2.0198862E1,1.4744107E0,1.2430813E0,2.1835227E0,2.6687498E0,7.6136317E0,1.745018E0,1.4794774E1,5.404088E0,3.4165268E0,4.197105E0,2.7000544E0,2.7040336E0,2.9717278E0,1.2253771E0,1.2325175E0,1.471516E0,1.7396643E0,1.2320637E0],"tree_param":{"num_deleted":"0","num_feature":"8","num_nodes":"137","size_leaf_vector":"0"}},{"base_weights":[-8.2055575E-1,3.3444825E-1,-1.2696747E0,1.1744485E0,-2.568234E-1,-1.5241841E0,-1.472383E-1,1.3956238E0,-1.3717996E0,1.5692216E0,-1.3169361E0,-1.5261183E0,5.7790333E-1,-1.4379135E0,6.5809345E-1,-1.4264474E0,1.4757472E0,-1.4257165E0,-0E0,-1.3440346E0,1.2057369E0,-1.5329033E0,-1.1372677E0,-1.468838E0,-7.0744944E-1,-1.3765978E0,1.1051013E0,-1.2057371E0,1.5044163E0,-1.3692077E0,1.1789082E0,-8.658204E-1,-1.5346764E0,-1.251943E0,-5.2865916E-1,-1.262294E0,-1.5484837E0,-0E0,-1.2679774E0,-6.1954963E-1,-1.4335406E0,1.3016471E0,-1.4823611E0,1.5409137E0,-6.2093925E-1,-1.3829943E0,-1.842881E-1,-1.1696745E0,2.3853832E-1,-1.3726766E0,-1.5440466E0,-1.3151487E0,-5.1034164E-1,4.10404E-1,-1.2485346E0,-3.8606566E-1,-1.3519629E0,-6.5487045E-1,9.499498E-1,-1.2904681E-1,-1.015215E0,-1.4527445E0,-4.5851305E-1,-8.7407815E-1,1.4188814E0,-6.25599E-1,1.5602261E0,-1.2497175E0,6.6993606E-1,-1.4479821E0,-1.2666717E0,-7.5469583E-1,4.49607E-1,-1.4483362E0,-9.2532736E-1,-1.5600411E0,-1.4469194E0,-9.6641296E-1,-1.5019345E0,2.8841412E-1,-1.0279667E0,-2.690179E-1,9.8306835E-1,2.4829814E-1,-1.0411144E0,-9.499498E-1,-0E0,-1.3630522E0,1.4205101E-3,-1.1467932E0,1.4896743E0,-5.35927E-1,-1.3230535E0,-3.7946466E-1,-1.4793705E0,2.640015E-1,-1.1937975E0,-1.3619697E0,1.1906278E0,-1.0110077E-1,5.209802E-1,6.6993606E-1,-5.5488384E-1,1.5183269E0,-1.015215E0,-1.1435318E0,-2.0325226E-1,-1.3379743E0,-5.2104853E-2,4.551418E-1,-9.774123E-1,1.1376209E0,-9.2580366E-1,-1.3644891E0,-3.8253787E-1,1.5318915E0,8.8844794E-1,1.6530553E-1,-1.0116216E0,-1.3974922E0,-9.624397E-1,-1.4303071E0,-4.4739315E-1,5.280032E-1,-9.8645806E-1,1.2303271E0,5.2367996E-2,5.7508147E-1,-2.365475E-1,-1.4177951E0,-7.4692506E-1,-1.234037E0,-3.0567586E-1,-9.42948E-1,4.8662755E-1,3.0714145E-1,-1.2178698E0,-1.3498441E0,-4.2414102E-1,-7.569129E-1,3.7192246E-1,-1.0272117E0,-1.485331E-1],"categories":[],"categories_nodes":[],"categories_segments":[],"categories_sizes":[],"default_left":[true,true,true,true,true,true,true,true,true,false,true,true,false,true,true,false,true,false,false,true,false,true,true,true,true,true,true,false,true,true,false,true,true,true,true,true,false,true,false,true,true,true,false,true,true,true,true,false,false,true,true,true,true,true,false,true,false,true,false,false,false,false,false,true,true,false,false,false,false,false,true,false,false,true,true,false,false,true,false,false,false,false,false,true,false,false,false,false,true,false,true,true,true,true,false,true,true,false,false,false,false,false,false,true,false,false,true,true,false,false,false,false,false,true,true,false,true,true,false,true,true,false,false,false,false,false,false,false,true,false,true,true,true,false,false,false,false,false,false,true,false,false,false],"id":3,"left_children":[1,3,5,7,9,11,13,15,17,-1,19,21,-1,23,25,-1,27,-1,-1,29,-1,31,33,35,37,39,41,-1,43,45,-1,47,49,51,53,55,-1,57,-1,59,61,63,-1,65,67,69,71,-1,-1,73,75,77,79,81,-1,83,-1,85,-1,-1,-1,-1,-1,87,89,-1,-1,-1,-1,-1,91,-1,-1,93,95,-1,-1,97,-1,-1,-1,-1,-1,99,-1,-1,-1,-1,101,-1,103,105,107,109,-1,111,113,-1,-1,-1,-1,-1,-1,115,-1,-1,117,119,-1,-1,-1,-1,-1,121,123,-1,125,127,-1,129,131,-1,-1,-1,-1,-1,-1,-1,133,-1,135,137,139,-1,-1,-1,-1,-1,-1,141,-1,-1,-1],"loss_changes":[1.4537494E3,3.9028497E2,5.761094E2,1.8469168E2,8.9572797E2,7.568115E0,3.8969995E2,6.9737915E1,1.9557953E0,0E0,2.1624298E1,2.5922852E0,0E0,2.2141113E0,2.1161465E2,0E0,2.421112E1,0E0,0E0,2.0031372E1,0E0,5.78125E-1,1.5753784E0,3.0297852E-1,3.0845318E0,9.246597E-1,9.852478E1,0E0,2.3351746E1,4.443054E0,0E0,2.4831223E0,3.1933594E-1,5.588875E-1,5.1182175E0,2.9040146E0,0E0,3.383324E0,0E0,7.8170323E-1,5.1956177E-2,4.640384E1,0E0,1.2863831E1,5.3719273E0,3.137207E-1,1.9524286E0,0E0,0E0,1.9380188E0,8.959961E-2,8.234787E-2,1.8242238E0,1.7076154E0,0E0,2.5222135E0,0E0,6.220939E-1,0E0,0E0,0E0,0E0,0E0,4.1423583E0,3.229361E1,0E0,0E0,0E0,0E0,0E0,3.8158112E0,0E0,0E0,2.1280212E0,5.673194E0,0E0,0E0,1.1022245E1,0E0,0E0,0E0,0E0,0E0,3.932739E-1,0E0,0E0,0E0,0E0,2.0322337E0,0E0,1.3333923E1,1.6974864E0,1.8508759E0,2.2576947E0,0E0,5.1166205E0,1.3988686E0,0E0,0E0,0E0,0E0,0E0,0E0,3.0395508E-2,0E0,0E0,2.367688E0,8.914795E-1,0E0,0E0,0E0,0E0,0E0,2.8324127E-2,2.610897E0,0E0,1.5973797E0,1.1129322E0,0E0,5.2642822E-2,2.6375675E0,0E0,0E0,0E0,0E0,0E0,0E0,0E0,2.350926E0,0E0,2.6874938E0,5.180378E-1,2.1997888E0,0E0,0E0,0E0,0E0,0E0,0E0,5.208957E-1,0E0,0E0,0E0],"parents":[2147483647,0,0,1,1,2,2,3,3,4,4,5,5,6,6,7,7,8,8,10,10,11,11,13,13,14,14,16,16,19,19,21,21,22,22,23,23,24,24,25,25,26,26,28,28,29,29,31,31,32,32,33,33,34,34,35,35,37,37,39,39,40,40,41,41,43,43,44,44,45,45,46,46,49,49,50,50,51,51,52,52,53,53,55,55,57,57,63,63,64,64,70,70,73,73,74,74,77,77,83,83,88,88,90,90,91,91,92,92,93,93,95,95,96,96,103,103,106,106,107,107,113,113,114,114,116,116,117,117,119,119,120,120,128,128,130,130,131,131,132,132,139,139],"right_children":[2,4,6,8,10,12,14,16,18,-1,20,22,-1,24,26,-1,28,-1,-1,30,-1,32,34,36,38,40,42,-1,44,46,-1,48,50,52,54,56,-1,58,-1,60,62,64,-1,66,68,70,72,-1,-1,74,76,78,80,82,-1,84,-1,86,-1,-1,-1,-1,-1,88,90,-1,-1,-1,-1,-1,92,-1,-1,94,96,-1,-1,98,-1,-1,-1,-1,-1,100,-1,-1,-1,-1,102,-1,104,106,108,110,-1,112,114,-1,-1,-1,-1,-1,-1,116,-1,-1,118,120,-1,-1,-1,-1,-1,122,124,-1,126,128,-1,130,132,-1,-1,-1,-1,-1,-1,-1,134,-1,136,138,140,-1,-1,-1,-1,-1,-1,142,-1,-1,-1],"split_conditions":[-5.934731E-1,-1.0585942E0,6.823441E-1,-8.2344866E-1,-1.9992555E0,1.7120028E0,5.1779467E-1,-1.5815427E0,1.5317388E0,1.5692216E-1,2.1828675E0,1.372502E0,5.7790335E-2,1.431592E0,3.0994898E-1,-1.4264475E-1,-1.512721E0,-1.4257166E-1,-0E0,1.7620761E0,1.2057369E-1,-5.5330783E-1,1.0009612E0,1.3657988E0,-5.1242653E-2,-1.0585942E0,2.0492535E0,-1.20573714E-1,-7.51606E-1,1.6257783E0,1.1789083E-1,8.5074115E-1,-1.0585942E0,1.3050462E0,1.3014014E0,-1.3575002E0,-1.5484838E-1,-2.1190351E-1,-1.2679774E-1,1.3657988E0,2.5987566E-1,4.106573E-1,-1.4823611E-1,-1.0955381E0,6.604624E-1,-1.2361165E0,-2.2082853E-1,-1.16967455E-1,2.3853833E-2,1.0310051E0,-1.1107028E-3,-7.8165007E-1,2.4122828E-1,1.1111226E0,-1.24853455E-1,7.922269E-1,-1.351963E-1,-4.328122E-1,9.4994985E-2,-1.2904681E-2,-1.0152151E-1,-1.4527445E-1,-4.5851305E-2,1.1592588E0,-2.4822886E-1,-6.25599E-2,1.5602261E-1,-1.2497175E-1,6.699361E-2,-1.447982E-1,-1.1959512E0,-7.546958E-2,4.4960704E-2,-5.1314265E-1,1.1011078E0,-1.5600412E-1,-1.4469194E-1,-9.318701E-1,-1.5019345E-1,2.8841412E-2,-1.02796674E-1,-2.690179E-2,9.8306835E-2,4.3073994E-1,-1.0411145E-1,-9.4994985E-2,-0E0,-1.3630523E-1,1.3050462E0,-1.1467933E-1,1.372502E0,-2.4822886E-1,1.5674634E0,-6.845654E-1,-1.4793704E-1,2.2991386E-1,-1.1107028E-3,-1.3619697E-1,1.1906278E-1,-1.0110077E-2,5.2098017E-2,6.699361E-2,-5.5488385E-2,1.2139616E0,-1.0152151E-1,-1.1435318E-1,1.0110344E0,1.372502E0,-5.2104853E-3,4.551418E-2,-9.774123E-2,1.13762096E-1,-9.258037E-2,1.5383059E0,4.3073994E-1,1.5318915E-1,2.4122828E-1,-1.1107028E-3,-1.0116216E-1,1.3342037E0,4.0116483E-1,-1.4303072E-1,-4.4739317E-2,5.2800324E-2,-9.864581E-2,1.2303271E-1,5.2368E-3,5.750815E-2,5.6213653E-1,-1.4177951E-1,1.3925185E0,-6.3363826E-1,6.823441E-1,-9.42948E-2,4.8662756E-2,3.0714145E-2,-1.21786974E-1,-1.3498442E-1,-4.2414103E-2,1.1311519E0,3.7192248E-2,-1.0272117E-1,-1.4853311E-2],"split_indices":[0,2,4,1,0,3,1,1,3,0,2,2,0,3,3,0,3,0,0,3,0,0,3,4,0,2,4,0,3,1,0,3,2,1,3,7,0,0,0,4,3,0,0,0,3,0,3,0,0,3,4,3,7,3,0,0,0,0,0,0,0,0,0,1,2,0,0,0,0,0,0,0,0,0,3,0,0,3,0,0,0,0,0,0,0,0,0,0,1,0,2,2,1,4,0,0,4,0,0,0,0,0,0,0,0,0,5,2,0,0,0,0,0,1,0,0,7,4,0,1,1,0,0,0,0,0,0,0,2,0,1,0,4,0,0,0,0,0,0,3,0,0,0],"split_type":[0,0,0,0,0,0,0,0,0,0,0,0,0,0,0,0,0,0,0,0,0,0,0,0,0,0,0,0,0,0,0,0,0,0,0,0,0,0,0,0,0,0,0,0,0,0,0,0,0,0,0,0,0,0,0,0,0,0,0,0,0,0,0,0,0,0,0,0,0,0,0,0,0,0,0,0,0,0,0,0,0,0,0,0,0,0,0,0,0,0,0,0,0,0,0,0,0,0,0,0,0,0,0,0,0,0,0,0,0,0,0,0,0,0,0,0,0,0,0,0,0,0,0,0,0,0,0,0,0,0,0,0,0,0,0,0,0,0,0,0,0,0,0],"sum_hessian":[2.8006753E3,7.8419867E2,2.0164766E3,3.2355228E2,4.606464E2,1.643467E3,3.7300955E2,2.981094E2,2.544285E1,1.6902335E2,2.9162305E2,1.64223E3,1.2370838E0,1.4301663E2,2.2999292E2,7.7662716E0,2.9034314E2,2.444285E1,1E0,2.8898602E2,2.6370442E0,1.6111746E3,3.1055481E1,1.3623811E2,6.778513E0,4.1052143E1,1.8894078E2,2.6370442E0,2.877061E2,2.8658386E2,2.4021535E0,5.568376E0,1.6056061E3,2.5242233E1,5.8132486E0,4.2603672E1,9.3634445E1,3.4386053E0,3.3399074E0,3.7028906E0,3.734925E1,1.7606377E2,1.2877005E1,2.8311926E2,4.5868416E0,2.8312256E2,3.461303E0,4.32049E0,1.2478863E0,9.585562E1,1.5097505E3,2.2547174E1,2.6950574E0,2.7091336E0,3.104115E0,4.447636E0,3.8156036E1,2.2193027E0,1.2193027E0,2.2454178E0,1.4574728E0,3.614735E1,1.2019017E0,8.67171E0,1.6739206E2,2.2240767E0,2.8089517E2,3.105872E0,1.4809695E0,1.742972E2,1.0882537E2,1.7215788E0,1.739724E0,8.0075035E1,1.5780589E1,1.2833516E3,2.2639896E2,1.0017694E1,1.2529481E1,1.2338679E0,1.4611895E0,1.4815838E0,1.2275499E0,2.574947E0,1.8726889E0,1.2193027E0,1E0,5.206785E0,3.4649248E0,4.086588E0,1.6330548E2,8.547648E0,1.0027772E2,2.6325612E0,7.7442474E1,2.909239E0,1.287135E1,8.776803E0,1.2408909E0,1.4045167E0,1.1704305E0,1.4809695E0,1.9839553E0,1.61848E2,1.4574728E0,2.1618357E0,6.3858128E0,9.9062004E1,1.2157153E0,1.1985164E0,1.4340448E0,1.702806E0,1.2064329E0,1.00705385E1,2.8008118E0,1.570342E2,4.813809E0,4.9324713E0,1.4533416E0,8.316066E1,1.5901347E1,8.87406E0,1.1964779E0,1.167005E0,1.633807E0,3.08201E0,1.731799E0,2.2287278E0,2.7037432E0,7.95003E1,3.6603613E0,1.0627499E1,5.2738485E0,1.2140014E0,1.4897418E0,1.2377815E0,2.4225798E0,8.714695E0,1.9128035E0,3.095435E0,2.1784134E0,1.6665574E0,1.4288774E0],"tree_param":{"num_deleted":"0","num_feature":"8","num_nodes":"143","size_leaf_vector":"0"}},{"base_weights":[-7.7449876E-1,3.1397972E-1,-1.1985353E0,1.1075466E0,-2.4205445E-1,-1.439229E0,-1.4099565E-1,1.3174909E0,-1.2887497E0,1.4852742E0,-1.2342087E0,-1.441134E0,5.477199E-1,-1.3539194E0,6.167742E-1,-1.3484306E0,1.3938832E0,-1.3413655E0,-0E0,-1.2600967E0,1.1422539E0,-1.4477843E0,-1.0656626E0,-1.375898E0,-5.0278044E-1,-1.2943803E0,1.039351E0,-1.1422539E0,1.4216194E0,-1.2841897E0,1.1174597E0,-1.4649928E0,-1.3467712E0,-1.1747342E0,-4.9261248E-1,-1.1871012E0,-1.4478214E0,-1.0259699E0,5.0465044E-2,-5.858167E-1,-1.3490648E0,1.2251748E0,-1.4015994E0,1.4568611E0,-5.810171E-1,-1.3043609E0,-4.792485E-1,-1.2975266E0,-1.4743273E0,-5.273541E-2,-1.3559622E0,-1.2143033E0,-3.173472E-1,3.9117682E-1,-1.1819701E0,-3.6222664E-1,-1.272789E0,-1.4615871E0,-5.829988E-1,-1.3336663E-1,2.1518275E-1,-1.2014219E-1,-9.6668375E-1,-1.3673093E0,-4.3585056E-1,-8.183144E-1,1.3375564E0,-5.856925E-1,1.4757979E0,-1.1829902E0,6.333671E-1,-1.3637524E0,-1.1983874E0,5.3698946E-2,-1.2040699E0,-6.1373127E-1,-1.3221203E0,-7.048961E-1,-1.3623556E0,-2.5345883E-1,9.3669474E-1,2.5814027E-1,-1.0130055E0,-1.2886889E0,3.902758E-3,-1.0776856E0,1.4056026E0,-5.0916475E-1,-1.253386E0,-7.843826E-1,7.52473E-1,-1.0796794E0,2.2779858E-1,-1.38514E0,-9.347184E-1,-1.0094888E0,-1.2121956E-2,5.2724206E-1,-9.251273E-2,6.333671E-1,-5.1999515E-1,1.4335711E0,-9.6668375E-1,-1.0850201E0,-1.9637752E-1,-1.3510094E0,-9.972838E-1,-1.5312453E-1,1.2531983E0,3.5195085E-1,-1.2906164E0,1.4466759E0,8.36543E-1,1.5077493E-1,-9.635003E-1,-1.4142746E0,-7.682026E-1,-3.6924762E-1,-1.2560244E0,-1.3536628E0,-4.2538372E-1,1.215524E0,4.535935E-2,5.5794406E-1,-2.4656928E-1,-1.6736637E-1,-1.2482212E0,-6.413857E-1,6.168458E-1,-9.9676585E-1,6.772656E-1,-9.261155E-1,3.111039E-1,-1.215345E0,-1.5912302E-2,-3.6354193E-1,7.321989E-1,4.666533E-1,-8.802038E-1,8.465563E-1,-1.5523817E-2],"categories":[],"categories_nodes":[],"categories_segments":[],"categories_sizes":[],"default_left":[true,true,true,true,true,true,true,true,true,false,true,true,false,true,true,false,true,false,false,true,false,true,true,true,true,true,true,false,true,true,false,true,true,true,true,true,true,false,true,true,true,true,false,true,true,true,true,true,false,false,true,false,false,true,false,true,false,false,false,false,false,false,false,false,false,true,true,false,false,false,false,false,true,true,false,true,true,true,false,false,false,true,false,false,true,false,true,true,true,false,true,false,false,false,true,false,false,false,false,false,false,true,false,false,true,true,true,false,false,false,true,false,true,true,false,false,true,true,false,false,false,false,false,false,true,true,false,true,false,false,false,false,true,false,true,false,false,true,false,false,false],"id":4,"left_children":[1,3,5,7,9,11,13,15,17,-1,19,21,-1,23,25,-1,27,-1,-1,29,-1,31,33,35,37,39,41,-1,43,45,-1,47,49,51,53,55,57,-1,59,61,63,65,-1,67,69,71,73,75,-1,-1,77,-1,-1,79,-1,81,-1,-1,-1,-1,-1,-1,-1,-1,-1,83,85,-1,-1,-1,-1,-1,87,89,-1,91,93,95,-1,-1,-1,97,-1,-1,99,-1,101,103,105,-1,107,-1,-1,-1,109,-1,-1,-1,-1,-1,-1,111,-1,-1,113,115,117,-1,-1,-1,119,-1,121,123,-1,-1,125,127,-1,-1,-1,-1,-1,-1,129,131,-1,133,-1,-1,-1,-1,135,-1,137,-1,-1,139,-1,-1,-1],"loss_changes":[1.2379128E3,3.32301E2,4.9100244E2,1.5775668E2,7.615175E2,6.7390137E0,3.306939E2,6.006549E1,1.7286835E0,0E0,1.879486E1,2.3789062E0,0E0,1.8955841E0,1.8029123E2,0E0,2.1196045E1,0E0,0E0,1.7447815E1,0E0,7.04834E-1,1.3666344E0,1.0430908E-1,1.5156813E0,7.8154755E-1,8.42737E1,0E0,2.0302673E1,3.8756714E0,0E0,1.2695312E-1,2.7428284E0,4.7719955E-1,4.543601E0,2.5492363E0,2.5106812E-1,0E0,1.3199235E-1,7.12844E-1,1.8737793E-2,4.0058426E1,0E0,1.1354004E1,4.756938E0,6.40564E-2,3.293058E0,4.8739624E-1,0E0,0E0,1.7578125E-2,0E0,0E0,1.5339108E0,0E0,2.4438648E0,0E0,0E0,0E0,0E0,0E0,0E0,0E0,0E0,0E0,3.665543E0,2.8007935E1,0E0,0E0,0E0,0E0,0E0,3.348114E0,3.971348E0,0E0,2.0291457E0,5.042114E-1,9.0707946E-1,0E0,0E0,0E0,3.8511807E-1,0E0,0E0,1.7939535E0,0E0,1.1817108E1,1.4900949E0,1.0704803E0,0E0,1.8509939E0,0E0,0E0,0E0,6.583352E0,0E0,0E0,0E0,0E0,0E0,0E0,8.69751E-3,0E0,0E0,2.1022294E0,1.3912048E0,4.493883E0,0E0,0E0,0E0,7.789612E-3,0E0,1.6591382E0,1.095951E0,0E0,0E0,2.3202324E0,3.164563E0,0E0,0E0,0E0,0E0,0E0,0E0,3.2335367E0,2.1212215E0,0E0,3.0596888E0,0E0,0E0,0E0,0E0,1.3585528E0,0E0,2.545131E0,0E0,0E0,7.3440707E-1,0E0,0E0,0E0],"parents":[2147483647,0,0,1,1,2,2,3,3,4,4,5,5,6,6,7,7,8,8,10,10,11,11,13,13,14,14,16,16,19,19,21,21,22,22,23,23,24,24,25,25,26,26,28,28,29,29,31,31,32,32,33,33,34,34,35,35,36,36,38,38,39,39,40,40,41,41,43,43,44,44,45,45,46,46,47,47,50,50,53,53,55,55,65,65,66,66,72,72,73,73,75,75,76,76,77,77,81,81,84,84,86,86,87,87,88,88,90,90,94,94,101,101,104,104,105,105,106,106,110,110,112,112,113,113,116,116,117,117,124,124,125,125,127,127,132,132,134,134,137,137],"right_children":[2,4,6,8,10,12,14,16,18,-1,20,22,-1,24,26,-1,28,-1,-1,30,-1,32,34,36,38,40,42,-1,44,46,-1,48,50,52,54,56,58,-1,60,62,64,66,-1,68,70,72,74,76,-1,-1,78,-1,-1,80,-1,82,-1,-1,-1,-1,-1,-1,-1,-1,-1,84,86,-1,-1,-1,-1,-1,88,90,-1,92,94,96,-1,-1,-1,98,-1,-1,100,-1,102,104,106,-1,108,-1,-1,-1,110,-1,-1,-1,-1,-1,-1,112,-1,-1,114,116,118,-1,-1,-1,120,-1,122,124,-1,-1,126,128,-1,-1,-1,-1,-1,-1,130,132,-1,134,-1,-1,-1,-1,136,-1,138,-1,-1,140,-1,-1,-1],"split_conditions":[-5.934731E-1,-1.0585942E0,6.823441E-1,-8.2344866E-1,-1.9992555E0,1.7120028E0,5.1779467E-1,-1.5815427E0,1.5317388E0,1.4852743E-1,2.1828675E0,1.372502E0,5.477199E-2,1.4716507E0,3.0994898E-1,-1.3484307E-1,-1.512721E0,-1.3413654E-1,-0E0,1.7620761E0,1.1422539E-1,-1.1107028E-3,1.0009612E0,1.3657988E0,2.4122828E-1,-1.0585942E0,2.0492535E0,-1.1422539E-1,-7.51606E-1,1.5674634E0,1.1174597E-1,-1.0585942E0,-5.5330783E-1,1.4508336E0,1.3014014E0,-1.3575002E0,1.431592E0,-1.0259699E-1,-2.1190351E-1,1.3657988E0,2.5987566E-1,4.106573E-1,-1.4015995E-1,-1.0955381E0,6.604624E-1,-1.2361165E0,6.823441E-1,-5.1314265E-1,-1.4743273E-1,-5.273541E-3,-5.1314265E-1,-1.2143033E-1,-3.173472E-2,1.1111226E0,-1.1819702E-1,-7.6513374E-1,-1.2727891E-1,-1.4615871E-1,-5.829988E-2,-1.3336663E-2,2.1518275E-2,-1.201422E-2,-9.666838E-2,-1.3673094E-1,-4.358506E-2,1.1592588E0,-2.4822886E-1,-5.8569252E-2,1.4757979E-1,-1.1829902E-1,6.3336715E-2,-1.3637523E-1,-1.1959512E0,-2.2082853E-1,-1.20406985E-1,-8.3172333E-1,1.0310051E0,9.964091E-2,-1.3623556E-1,-2.5345882E-2,9.3669474E-2,-2.4822886E-1,-1.0130055E-1,-1.288689E-1,1.3050462E0,-1.0776856E-1,1.372502E0,-2.4822886E-1,-5.057913E-2,-7.843826E-2,-1.7984295E0,-1.07967936E-1,2.2779858E-2,-1.38514E-1,1.1011078E0,-1.00948885E-1,-1.2121956E-3,5.272421E-2,-9.251273E-3,6.3336715E-2,-5.1999517E-2,1.2139616E0,-9.666838E-2,-1.0850201E-1,1.0110344E0,8.093693E-1,3.8005167E-1,-1.5312453E-2,1.2531982E-1,3.5195086E-2,1.5383059E0,1.446676E-1,1.2758887E0,-2.1081385E-1,-9.635004E-2,-1.4142746E-1,-9.147948E-1,3.1996366E-1,-1.2560244E-1,-1.3536629E-1,-4.253837E-2,1.215524E-1,4.5359354E-3,5.5794407E-2,5.9035975E-1,-1.3224422E0,-1.2482212E-1,-8.344643E-1,6.168458E-2,-9.967659E-2,6.772656E-2,-9.261155E-2,5.6213653E-1,-1.21534504E-1,2.2117779E-2,-3.6354195E-2,7.321989E-2,-6.7380345E-1,-8.802038E-2,8.4655635E-2,-1.5523818E-3],"split_indices":[0,2,4,1,0,3,1,1,3,0,2,2,0,3,3,0,3,0,0,3,0,4,3,4,7,2,4,0,3,1,0,2,0,1,3,7,3,0,0,4,3,0,0,0,3,0,4,0,0,0,0,0,0,3,0,1,0,0,0,0,0,0,0,0,0,1,2,0,0,0,0,0,0,3,0,3,3,3,0,0,0,2,0,0,1,0,2,2,3,0,0,0,0,0,3,0,0,0,0,0,0,0,0,0,5,1,3,0,0,0,1,0,1,3,0,0,0,3,0,0,0,0,0,0,3,3,0,0,0,0,0,0,2,0,1,0,0,0,0,0,0],"split_type":[0,0,0,0,0,0,0,0,0,0,0,0,0,0,0,0,0,0,0,0,0,0,0,0,0,0,0,0,0,0,0,0,0,0,0,0,0,0,0,0,0,0,0,0,0,0,0,0,0,0,0,0,0,0,0,0,0,0,0,0,0,0,0,0,0,0,0,0,0,0,0,0,0,0,0,0,0,0,0,0,0,0,0,0,0,0,0,0,0,0,0,0,0,0,0,0,0,0,0,0,0,0,0,0,0,0,0,0,0,0,0,0,0,0,0,0,0,0,0,0,0,0,0,0,0,0,0,0,0,0,0,0,0,0,0,0,0,0,0,0,0],"sum_hessian":[2.6802354E3,7.51482E2,1.9287533E3,3.092011E2,4.4228088E2,1.5708666E3,3.5788666E2,2.8470752E2,2.4493607E1,1.6117686E2,2.81104E2,1.5696364E3,1.2301846E0,1.3731184E2,2.2057483E2,7.4671955E0,2.7724033E2,2.3493607E1,1E0,2.7853952E2,2.5645092E0,1.539513E3,3.0123451E1,1.3325435E2,4.0575047E0,3.9566677E1,1.8100815E2,2.5645092E0,2.746758E2,2.762005E2,2.3390195E0,1.303881E3,2.3563193E2,2.4424622E1,5.6988306E0,4.1589138E1,9.166521E1,1.6462415E0,2.411263E0,3.674014E0,3.5892662E1,1.6866606E2,1.234208E1,2.7019354E2,4.4822507E0,2.6884308E2,7.3574166E0,7.623225E1,1.2276488E3,1.7092917E0,2.3392264E2,2.2949215E1,1.475406E0,2.6867886E0,3.012042E0,4.4056234E0,3.7183514E1,8.954977E1,2.115437E0,1.2294636E0,1.1817994E0,2.2448046E0,1.4292095E0,3.470212E1,1.1905401E0,8.464805E0,1.6020126E2,2.2070615E0,2.6798648E2,3.0140371E0,1.4682134E0,1.6468094E2,1.0416213E2,4.773481E0,2.5839357E0,3.5477033E0,7.268455E1,3.356662E0,2.3056596E2,1.4769106E0,1.209878E0,2.5643992E0,1.8412242E0,5.023578E0,3.441226E0,3.9832063E0,1.5621805E2,8.455732E0,9.57064E1,2.114692E0,2.658789E0,2.1012583E0,1.4464449E0,6.0299942E1,1.23846035E1,2.0139973E0,1.3426648E0,1.1659856E0,1.3984135E0,1.4682134E0,1.9730127E0,1.5478885E2,1.4292095E0,2.1072733E0,6.3484592E0,6.619738E1,2.9509018E1,1.1938396E0,1.4649495E0,2.6857972E0,9.698807E0,1.5007162E2,4.7172275E0,4.9237347E0,1.4247245E0,5.8428196E1,7.769186E0,9.318206E0,2.0190811E1,8.51392E0,1.1848866E0,2.8268273E0,1.8904E0,2.2321787E0,2.691556E0,4.04933E0,3.7198558E0,7.576769E0,1.741437E0,1.4418021E0,1.2497538E0,1.2041833E0,2.845147E0,3.4592984E0,4.1174707E0,1.1459188E0,1.6992279E0,2.9374557E0,1.180015E0,1.220298E0,1.7171575E0],"tree_param":{"num_deleted":"0","num_feature":"8","num_nodes":"141","size_leaf_vector":"0"}},{"base_weights":[-7.363186E-1,2.9670653E-1,-1.1395272E0,1.0522449E0,-2.29948E-1,-1.368977E0,-1.3601182E-1,1.2531718E0,-1.2179235E0,1.4169495E0,-1.1643996E0,-1.3708732E0,5.195504E-1,-1.2828658E0,5.8186275E-1,-1.2825134E0,1.3266044E0,-1.2698714E0,-0E0,-1.1893109E0,1.0864911E0,-1.3776207E0,-9.983694E-1,-1.3120415E0,-6.28324E-1,-1.2242904E0,9.842268E-1,-1.0864912E0,1.35368E0,-1.2125399E0,1.0632685E0,-1.3952404E0,-1.2749612E0,-1.1014309E0,-4.605393E-1,-1.1136622E0,-1.3902284E0,2.4347745E-2,-1.1641644E0,-5.5479777E-1,-1.277642E0,1.1611284E0,-1.3342336E0,1.3880565E0,-5.457791E-1,-1.2257292E0,-1.4998582E-1,-1.2289597E0,-1.4045935E0,-4.942583E-2,-1.2840867E0,-1.1614319E0,-4.3562993E-1,3.7353897E-1,-1.123881E0,-3.40056E-1,-1.1975863E0,-8.8518846E-1,6.379995E-1,-2.8639607E-2,-8.4833115E-1,-1.2953194E0,-4.1451022E-1,-7.6917213E-1,1.2697995E0,-5.48918E-1,1.4068404E0,-1.1247737E0,5.9949523E-1,-1.4335945E0,-1.1877149E0,-6.594348E-1,4.047967E-1,-5.790573E-1,-1.2529683E0,-8.1385446E-1,-1.3565726E0,3.1048682E-1,-9.442397E-1,-2.388398E-1,8.946646E-1,2.474399E-1,-9.705848E-1,-1.2250566E0,6.1335918E-3,-1.0165477E0,1.3357621E0,9.4613E-1,1.4182985E0,-5.266291E-1,-1.231968E0,-1.0283775E0,2.1378349E-1,-1.3145021E0,-8.798961E-1,-1.215971E0,1.1920445E0,-8.460305E-2,4.9857506E-1,5.9949523E-1,-4.877116E-1,1.3633021E0,-9.229012E-1,-1.0448438E-1,1.2324414E0,-1.2294365E0,-5.5390224E-2,-1.1370766E0,-1.3554902E0,3.2510847E-1,-1.2274928E0,1.3763962E0,7.877114E-1,-8.808978E-1,1.7808299E-1,-1.1532041E0,-1.10915735E-1,-1.3839005E0,-8.5437423E-1,1.1296575E0,4.1666836E-3,1.2755086E0,-1.7186877E-1,-1.2005802E0,-8.395032E-1,2.0784023E-1,-1.0719395E0,-7.1518344E-1,4.812837E-1,-7.698616E-1,-1.2298404E0,-1.233765E0,-1.4665995E-2,-7.810341E-2,-9.94923E-1,1.160009E0,-7.535154E-1,4.8779023E-1,-1.0304987E0,-1.3483119E0,-4.0524426E-1,-8.23189E-1,6.6928476E-1,-2.7375406E-1,-1.1074524E0,1.0330478E0,-9.2502974E-2],"categories":[],"categories_nodes":[],"categories_segments":[],"categories_sizes":[],"default_left":[true,true,true,true,true,true,true,true,true,false,true,true,false,true,true,false,true,false,false,true,false,true,true,true,true,true,true,false,true,true,false,true,true,true,true,true,false,true,false,true,true,true,false,true,true,true,true,true,false,false,false,true,true,true,false,true,false,false,false,false,false,false,false,true,true,false,true,false,false,false,true,false,false,true,true,true,false,false,false,false,false,true,false,false,true,false,true,true,false,true,true,false,false,false,true,false,false,false,false,false,false,true,false,false,false,false,true,true,true,false,false,false,true,false,true,true,false,false,true,false,false,false,true,true,true,false,false,true,true,true,false,true,true,false,false,false,false,false,true,false,false,false,true,false,false,false,false],"id":5,"left_children":[1,3,5,7,9,11,13,15,17,-1,19,21,-1,23,25,-1,27,-1,-1,29,-1,31,33,35,37,39,41,-1,43,45,-1,47,49,51,53,55,-1,57,-1,59,61,63,-1,65,67,69,71,73,-1,-1,-1,75,77,79,-1,81,-1,-1,-1,-1,-1,-1,-1,83,85,-1,87,-1,-1,-1,89,-1,-1,91,93,95,-1,-1,-1,-1,-1,97,-1,-1,99,-1,101,103,-1,105,107,-1,-1,-1,109,-1,-1,-1,-1,-1,-1,111,-1,-1,-1,-1,113,115,117,-1,-1,-1,119,-1,121,123,-1,-1,125,-1,-1,-1,127,129,131,-1,-1,133,135,137,-1,139,141,-1,-1,-1,-1,-1,143,-1,-1,-1,145,-1,-1,-1,-1],"loss_changes":[1.0619297E3,2.8526837E2,4.2196045E2,1.358139E2,6.5248785E2,6.055664E0,2.8255618E2,5.215393E1,1.5466042E0,0E0,1.6452332E1,2.3718262E0,0E0,1.6980286E0,1.5469583E2,0E0,1.8707855E1,0E0,0E0,1.5306305E1,0E0,8.6499023E-1,1.1643429E0,3.9883423E-1,2.6706831E0,6.815109E-1,7.2619064E1,0E0,1.7822235E1,3.5386047E0,0E0,1.9750977E-1,2.460968E0,4.7634125E-1,4.0538263E0,2.2231674E0,0E0,3.0126727E0,0E0,6.924039E-1,1.4419556E-3,3.4861053E1,0E0,1.012207E1,4.2308345E0,3.6932373E-1,1.5094113E0,4.2708588E-1,0E0,0E0,0E0,3.851452E-1,1.6718081E0,1.3817356E0,0E0,2.2262974E0,0E0,0E0,0E0,0E0,0E0,0E0,0E0,3.270553E0,2.4477692E1,0E0,3.112793E-3,0E0,0E0,0E0,6.0070496E0,0E0,0E0,1.8197043E0,4.590454E-1,9.833448E0,0E0,0E0,0E0,0E0,0E0,3.4007457E-1,0E0,0E0,1.5856422E0,0E0,1.0553497E1,2.892167E0,0E0,5.2377896E0,9.493408E-1,0E0,0E0,0E0,5.8397026E0,0E0,0E0,0E0,0E0,0E0,0E0,3.152466E-2,0E0,0E0,0E0,0E0,2.2070737E0,1.9635925E0,5.781555E-2,0E0,0E0,0E0,1.5039723E0,0E0,3.7232811E0,8.396759E-1,0E0,0E0,1.9068713E0,0E0,0E0,0E0,3.1119132E0,3.8505554E-1,6.3676434E0,0E0,0E0,7.5276136E-1,4.3432627E0,3.5826564E0,0E0,7.133465E-1,4.6223207E0,0E0,0E0,0E0,0E0,0E0,1.6878891E-1,0E0,0E0,0E0,1.3536563E0,0E0,0E0,0E0,0E0],"parents":[2147483647,0,0,1,1,2,2,3,3,4,4,5,5,6,6,7,7,8,8,10,10,11,11,13,13,14,14,16,16,19,19,21,21,22,22,23,23,24,24,25,25,26,26,28,28,29,29,31,31,32,32,33,33,34,34,35,35,37,37,39,39,40,40,41,41,43,43,44,44,45,45,46,46,47,47,51,51,52,52,53,53,55,55,63,63,64,64,66,66,70,70,73,73,74,74,75,75,81,81,84,84,86,86,87,87,89,89,90,90,94,94,101,101,106,106,107,107,108,108,112,112,114,114,115,115,118,118,122,122,123,123,124,124,127,127,128,128,129,129,131,131,132,132,138,138,142,142],"right_children":[2,4,6,8,10,12,14,16,18,-1,20,22,-1,24,26,-1,28,-1,-1,30,-1,32,34,36,38,40,42,-1,44,46,-1,48,50,52,54,56,-1,58,-1,60,62,64,-1,66,68,70,72,74,-1,-1,-1,76,78,80,-1,82,-1,-1,-1,-1,-1,-1,-1,84,86,-1,88,-1,-1,-1,90,-1,-1,92,94,96,-1,-1,-1,-1,-1,98,-1,-1,100,-1,102,104,-1,106,108,-1,-1,-1,110,-1,-1,-1,-1,-1,-1,112,-1,-1,-1,-1,114,116,118,-1,-1,-1,120,-1,122,124,-1,-1,126,-1,-1,-1,128,130,132,-1,-1,134,136,138,-1,140,142,-1,-1,-1,-1,-1,144,-1,-1,-1,146,-1,-1,-1,-1],"split_conditions":[-5.934731E-1,-1.0585942E0,6.823441E-1,-8.2344866E-1,-1.9992555E0,1.7120028E0,5.1779467E-1,-1.5815427E0,1.5317388E0,1.4169495E-1,2.1828675E0,1.372502E0,5.195504E-2,1.431592E0,3.0994898E-1,-1.2825134E-1,-1.512721E0,-1.2698714E-1,-0E0,1.7620761E0,1.0864911E-1,-1.1107028E-3,1.0009612E0,1.3657988E0,-5.1242653E-2,-1.0585942E0,2.0492535E0,-1.0864913E-1,-7.51606E-1,1.6257783E0,1.06326856E-1,-1.0585942E0,-5.5330783E-1,1.3050462E0,1.3014014E0,-1.3575002E0,-1.3902284E-1,-4.328122E-1,-1.1641645E-1,8.9335606E-2,2.5987566E-1,4.106573E-1,-1.3342337E-1,-1.0955381E0,6.604624E-1,-1.3925449E0,-2.2082853E-1,-5.1314265E-1,-1.4045934E-1,-4.942583E-3,-1.2840867E-1,-7.8165007E-1,2.4122828E-1,1.1111226E0,-1.123881E-1,7.922269E-1,-1.1975863E-1,-8.851885E-2,6.379995E-2,-2.8639608E-3,-8.4833115E-2,-1.2953195E-1,-4.1451022E-2,1.1592588E0,-2.4822886E-1,-5.4891802E-2,-1.3575002E0,-1.1247738E-1,5.9949525E-2,-1.4335945E-1,-1.1922514E0,-6.594348E-2,4.047967E-2,-8.3172333E-1,1.0310051E0,-9.318701E-1,-1.3565727E-1,3.1048683E-2,-9.442397E-2,-2.3883982E-2,8.946646E-2,-3.309899E-1,-9.705848E-2,-1.22505665E-1,1.3050462E0,-1.0165477E-1,1.372502E0,-9.5496E-1,1.4182985E-1,-2.4822886E-1,6.823441E-1,-1.0283776E-1,2.137835E-2,-1.3145022E-1,1.1011078E0,-1.21597104E-1,1.19204454E-1,-8.460305E-3,4.985751E-2,5.9949525E-2,-4.877116E-2,1.2139616E0,-9.2290126E-2,-1.0448438E-2,1.23244144E-1,-1.22943655E-1,-1.348283E0,1.5674634E0,1.5117093E0,3.2510847E-2,-1.22749284E-1,1.3763963E-1,2.4122828E-1,-8.808979E-2,-9.4007856E-1,-7.942991E-1,-1.1091574E-2,-1.3839005E-1,1.5317388E0,1.12965755E-1,4.1666836E-4,1.2755087E-1,-1.2561991E0,-1.8787599E0,-1.1107028E-3,2.0784024E-2,-1.0719395E-1,-1.6377686E0,-8.344643E-1,-8.317234E-1,-1.22984044E-1,1.372502E0,-1.3069649E-1,-7.8103407E-3,-9.9492304E-2,1.16000906E-1,-7.535154E-2,4.8779022E-2,-1.0567083E0,-1.3483119E-1,-4.0524427E-2,-8.23189E-2,-2.4822886E-1,-2.7375406E-2,-1.10745244E-1,1.0330478E-1,-9.250297E-3],"split_indices":[0,2,4,1,0,3,1,1,3,0,2,2,0,3,3,0,3,0,0,3,0,4,3,4,0,2,4,0,3,1,0,2,0,1,3,7,0,0,0,0,3,0,0,0,3,3,3,0,0,0,0,3,7,3,0,0,0,0,0,0,0,0,0,1,2,0,7,0,0,0,3,0,0,3,3,3,0,0,0,0,0,3,0,0,1,0,2,0,0,2,4,0,0,0,3,0,0,0,0,0,0,0,0,0,0,0,1,1,3,0,0,0,7,0,1,0,0,0,3,0,0,0,0,0,4,0,0,0,0,3,0,2,3,0,0,0,0,0,1,0,0,0,2,0,0,0,0],"split_type":[0,0,0,0,0,0,0,0,0,0,0,0,0,0,0,0,0,0,0,0,0,0,0,0,0,0,0,0,0,0,0,0,0,0,0,0,0,0,0,0,0,0,0,0,0,0,0,0,0,0,0,0,0,0,0,0,0,0,0,0,0,0,0,0,0,0,0,0,0,0,0,0,0,0,0,0,0,0,0,0,0,0,0,0,0,0,0,0,0,0,0,0,0,0,0,0,0,0,0,0,0,0,0,0,0,0,0,0,0,0,0,0,0,0,0,0,0,0,0,0,0,0,0,0,0,0,0,0,0,0,0,0,0,0,0,0,0,0,0,0,0,0,0,0,0,0,0],"sum_hessian":[2.5476885E3,7.1531287E2,1.8323756E3,2.9340137E2,4.2191147E2,1.4910815E3,3.41294E2,2.699562E2,2.3445162E1,1.5254558E2,2.693659E2,1.4898597E3,1.2218394E0,1.310868E2,2.1020721E2,7.1343975E0,2.628218E2,2.2445162E1,1E0,2.6688385E2,2.4820645E0,1.4607026E3,2.9157064E1,1.2453139E2,6.555412E0,3.7924953E1,1.7228226E2,2.4820645E0,2.6033975E2,2.646168E2,2.2670598E0,1.2359777E3,2.2472499E2,2.3588926E1,5.568139E0,3.9515205E1,8.501618E1,3.38587E0,3.1695418E0,3.6404862E0,3.4284466E1,1.605326E2,1.1749663E1,2.5597632E2,4.36344E0,2.6122073E2,3.3960633E0,7.287048E1,1.1631072E3,1.7083812E0,2.2301662E2,2.0955992E1,2.632934E0,2.6601632E0,2.907976E0,4.3616586E0,3.5153545E1,1.1858078E0,2.200062E0,1.6967081E0,1.9437783E0,3.310572E1,1.178745E0,8.231972E0,1.5230063E2,2.1874406E0,2.5378886E2,2.910124E0,1.453316E0,3.4710247E1,2.2651048E2,1.6720275E0,1.7240359E0,3.4909523E0,6.937953E1,9.394126E0,1.1561866E1,1.2251744E0,1.4077595E0,1.472041E0,1.1881222E0,2.5723946E0,1.7892638E0,4.818544E0,3.413428E0,3.8666558E0,1.4843398E2,8.186738E0,2.4560213E2,1.5020669E1,2.114898E2,2.0385702E0,1.4523821E0,5.7390247E1,1.19892845E1,8.153434E0,1.2406921E0,1.3933151E0,1.1790795E0,1.453316E0,1.9601121E0,1.4703755E2,1.3964198E0,1.8892472E0,6.2974906E0,5.3831997E0,9.637469E0,1.2537811E2,8.6111694E1,2.6986477E0,9.290637E0,1.4240668E2,4.6308694E0,1.5134045E0,8.124065E0,1.2331622E2,2.0618892E0,7.982449E1,6.2872024E0,2.9163992E0,1.7144704E0,1.3247919E0,6.799273E0,1.04679985E2,1.8636238E1,1.0764365E0,5.210766E0,3.659884E0,3.139389E0,8.396205E0,9.628378E1,1.22737665E1,6.3624725E0,1.507011E0,2.152873E0,2.0649357E0,1.0744534E0,1.2917237E0,7.1044807E0,1.0231799E1,2.0419672E0,2.8224144E0,3.540058E0,1.0764365E0,6.028044E0,2.1549563E0,1.3851017E0],"tree_param":{"num_deleted":"0","num_feature":"8","num_nodes":"147","size_leaf_vector":"0"}},{"base_weights":[-7.0396537E-1,2.818394E-1,-1.089843E0,1.0059263E0,-2.1957508E-1,-1.3099743E0,-1.3195147E-1,1.199506E0,-1.1563133E0,1.3604457E0,-1.1025022E0,-1.3118784E0,4.9319515E-1,-1.2225678E0,5.5184484E-1,-1.2258792E0,1.2705603E0,-1.2080675E0,-0E0,-1.1265566E0,1.0369349E0,-1.3186738E0,-9.439954E-1,-1.2510815E0,-5.9797996E-1,-1.1624951E0,9.3721896E-1,-1.0369347E0,1.2971832E0,-1.1490307E0,1.0149494E0,-1.3370391E0,-1.2126184E0,-1.0434339E0,-4.3171632E-1,-1.0526522E0,-1.330546E0,1.629146E-2,-1.1093134E0,-7.9413265E-1,-1.2870237E0,1.106601E0,-1.2770654E0,1.3309945E0,-5.1436305E-1,-1.1619878E0,-1.4200048E-1,-1.1691135E0,-1.3465929E0,-4.632389E-2,-1.2217678E0,-1.1017133E0,-4.1359803E-1,3.573051E-1,-1.0725361E0,-3.199311E-1,-1.1349168E0,-5.8840513E-1,8.834271E-1,-2.11325E-2,-1.2189544E0,-1.3215288E0,-3.2105193E-1,-7.253018E-1,1.2124625E0,-6.7922264E-1,1.3479038E0,-1.0733274E0,5.680076E-1,-1.2263987E0,-1.0497372E0,-6.242607E-1,3.804352E-1,-1.3066152E0,-9.8594135E-1,-5.9480375E-1,-1.2283005E0,-7.606896E-1,-1.2956942E0,3.0669582E-1,-9.115994E-1,-2.2509639E-1,8.5633826E-1,2.517724E-1,-9.446075E-1,-1.0675151E0,9.480504E-1,-1.3580375E0,-2.506181E-1,-1.1697524E0,8.142319E-3,-9.617612E-1,1.2768663E0,8.28656E-1,1.3624704E0,-1.3669825E0,-9.059706E-1,5.307365E-1,-1.0542194E0,-9.1243935E-1,6.2131636E-2,-1.1553692E0,1.1229686E0,5.0041914E-1,-7.998294E-2,5.680076E-1,-4.5775327E-1,-1.0779353E0,-3.025006E-1,1.304183E0,-8.8312083E-1,-2.184505E-1,1.1808801E0,-2.2910637E-1,-9.7668743E-1,-1.9014783E-1,-1.1144924E0,1.317354E0,7.448847E-1,7.7672875E-1,-5.251127E-1,2.9241556E-1,-1.0092106E0,-7.0205575E-1,3.2958302E-1,-1.1629934E0,-1.1678171E-1,1.1214259E0,-1.8105911E-3,-7.700849E-1,3.2858932E-1,-1.0947652E0,-5.402922E-1,-5.1450294E-1,-1.2462723E0,-1.0813689E0,-1.7891821E-1,-1.149843E0,-4.0832356E-1,5.724371E-1,-7.1393263E-1,-1.0423014E0,7.9921234E-1,-1.1906663E0,-4.360323E-1,3.3058873E-1,-1.0197767E0,-1.1713005E0,-2.1615654E-1,5.6114532E-2,-8.4562457E-1,3.522242E-1,-7.778145E-1,-5.12296E-1,1.1732934E0],"categories":[],"categories_nodes":[],"categories_segments":[],"categories_sizes":[],"default_left":[true,true,true,true,true,true,true,true,true,false,true,true,false,true,true,false,true,false,false,true,false,true,true,true,true,true,true,false,true,true,false,true,true,true,true,true,false,true,false,true,true,true,false,true,true,true,true,true,false,false,true,true,true,true,false,true,false,false,false,true,false,true,false,true,true,false,true,false,false,false,true,false,false,false,true,true,false,true,false,false,false,false,false,true,false,false,false,false,false,false,true,true,true,true,false,false,true,false,true,false,false,false,false,false,false,false,false,false,false,true,false,false,false,true,true,true,true,false,true,false,true,false,true,false,false,true,false,false,false,true,false,true,true,true,false,false,false,true,true,false,true,false,false,false,true,false,false,false,true,false,false,true,false,false,false],"id":6,"left_children":[1,3,5,7,9,11,13,15,17,-1,19,21,-1,23,25,-1,27,-1,-1,29,-1,31,33,35,37,39,41,-1,43,45,-1,47,49,51,53,55,-1,57,-1,59,61,63,-1,65,67,69,71,73,-1,-1,75,77,79,81,-1,83,-1,-1,-1,85,-1,87,-1,89,91,-1,93,-1,-1,-1,95,-1,-1,-1,97,99,-1,101,-1,-1,-1,-1,-1,103,-1,-1,-1,-1,-1,-1,105,107,109,111,-1,-1,113,-1,115,-1,-1,-1,-1,-1,-1,-1,-1,-1,-1,117,-1,-1,-1,119,121,123,125,-1,127,-1,129,-1,131,-1,-1,133,-1,-1,-1,135,-1,137,139,141,-1,-1,-1,143,145,-1,147,-1,-1,-1,149,-1,-1,-1,151,-1,-1,153,-1,-1,-1],"loss_changes":[9.16996E2,2.4663953E2,3.650586E2,1.17695984E2,5.6208124E2,5.4821777E0,2.4288155E2,4.559442E1,1.396904E0,0E0,1.4462952E1,2.2729492E0,0E0,1.4864044E0,1.3342645E2,0E0,1.6626373E1,0E0,0E0,1.34844055E1,0E0,1.0649414E0,1.0288277E0,4.77005E-1,2.3403373E0,6.8483734E-1,6.296019E1,0E0,1.57742E1,3.1460571E0,0E0,2.9589844E-1,2.230194E0,4.1109657E-1,3.6325119E0,1.9779472E0,0E0,2.7977023E0,0E0,3.91895E0,4.4892883E-1,3.0545334E1,0E0,9.14563E0,3.7769394E0,5.2297974E-1,1.3366765E0,4.833908E-1,0E0,0E0,1.4013672E-1,4.0439606E-1,1.5712812E0,1.2478421E0,0E0,2.1352103E0,0E0,0E0,0E0,6.36464E0,0E0,6.360588E-1,0E0,2.937729E0,2.15309E1,0E0,6.895447E-1,0E0,0E0,0E0,3.242012E0,0E0,0E0,0E0,4.1048355E0,9.187341E-1,0E0,8.761959E0,0E0,0E0,0E0,0E0,0E0,3.3398694E-1,0E0,0E0,0E0,0E0,0E0,0E0,1.4031402E0,3.708458E-2,9.486008E0,3.6190882E0,0E0,0E0,3.1539268E0,0E0,1.5117226E0,0E0,0E0,0E0,0E0,0E0,0E0,0E0,0E0,0E0,0E0,4.9224854E-2,0E0,0E0,0E0,2.7842612E0,2.919571E0,1.1263314E0,1.3513145E0,0E0,1.5539422E0,0E0,1.667499E0,0E0,1.9046707E0,0E0,0E0,9.355278E-1,0E0,0E0,0E0,8.286588E-1,0E0,1.4830818E0,2.6451354E0,4.317737E0,0E0,0E0,0E0,8.5795593E-1,2.7709014E0,0E0,2.127646E0,0E0,0E0,0E0,8.808523E-1,0E0,0E0,0E0,2.2640352E0,0E0,0E0,3.2889864E0,0E0,0E0,0E0],"parents":[2147483647,0,0,1,1,2,2,3,3,4,4,5,5,6,6,7,7,8,8,10,10,11,11,13,13,14,14,16,16,19,19,21,21,22,22,23,23,24,24,25,25,26,26,28,28,29,29,31,31,32,32,33,33,34,34,35,35,37,37,39,39,40,40,41,41,43,43,44,44,45,45,46,46,47,47,50,50,51,51,52,52,53,53,55,55,59,59,61,61,63,63,64,64,66,66,70,70,74,74,75,75,77,77,83,83,90,90,91,91,92,92,93,93,96,96,98,98,109,109,113,113,114,114,115,115,116,116,118,118,120,120,122,122,125,125,129,129,131,131,132,132,133,133,137,137,138,138,140,140,144,144,148,148,151,151],"right_children":[2,4,6,8,10,12,14,16,18,-1,20,22,-1,24,26,-1,28,-1,-1,30,-1,32,34,36,38,40,42,-1,44,46,-1,48,50,52,54,56,-1,58,-1,60,62,64,-1,66,68,70,72,74,-1,-1,76,78,80,82,-1,84,-1,-1,-1,86,-1,88,-1,90,92,-1,94,-1,-1,-1,96,-1,-1,-1,98,100,-1,102,-1,-1,-1,-1,-1,104,-1,-1,-1,-1,-1,-1,106,108,110,112,-1,-1,114,-1,116,-1,-1,-1,-1,-1,-1,-1,-1,-1,-1,118,-1,-1,-1,120,122,124,126,-1,128,-1,130,-1,132,-1,-1,134,-1,-1,-1,136,-1,138,140,142,-1,-1,-1,144,146,-1,148,-1,-1,-1,150,-1,-1,-1,152,-1,-1,154,-1,-1,-1],"split_conditions":[-5.934731E-1,-1.0585942E0,6.823441E-1,-8.2344866E-1,-1.9992555E0,1.7120028E0,5.1779467E-1,-1.5815427E0,1.5317388E0,1.3604458E-1,2.1828675E0,1.372502E0,4.9319517E-2,1.431592E0,3.0994898E-1,-1.2258792E-1,-1.512721E0,-1.2080675E-1,-0E0,1.7620761E0,1.03693485E-1,-1.1107028E-3,1.0009612E0,1.3657988E0,-5.1242653E-2,1.3657988E0,2.0492535E0,-1.0369348E-1,-7.51606E-1,1.6257783E0,1.01494946E-1,-1.0585942E0,-5.5330783E-1,1.3050462E0,1.3014014E0,-1.3575002E0,-1.330546E-1,-2.1190351E-1,-1.1093134E-1,-2.4822886E-1,1.372502E0,4.106573E-1,-1.2770654E-1,-1.1959512E0,6.604624E-1,-1.2361165E0,-2.2082853E-1,-9.063781E-2,-1.3465929E-1,-4.632389E-3,-5.1314265E-1,-7.8165007E-1,5.5123556E-1,1.1111226E0,-1.0725361E-1,-7.6513374E-1,-1.1349168E-1,-5.8840513E-2,8.834271E-2,-1.1822368E0,-1.2189545E-1,1.5674634E0,-3.2105193E-2,1.1592588E0,-2.4822886E-1,-6.7922264E-2,-1.3575002E0,-1.0733274E-1,5.680076E-2,-1.2263987E-1,-1.1150234E0,-6.242607E-2,3.804352E-2,-1.3066153E-1,-5.057913E-2,9.964091E-2,-1.2283005E-1,-9.318701E-1,-1.2956943E-1,3.0669583E-2,-9.115994E-2,-2.250964E-2,8.563383E-2,-2.4822886E-1,-9.446075E-2,-1.0675152E-1,9.480504E-2,-1.3580374E-1,-2.506181E-2,-1.1697524E-1,1.3050462E0,1.0131356E0,1.372502E0,-9.5496E-1,1.3624704E-1,-1.3669825E-1,-1.1959512E0,5.3073652E-2,-1.3774405E0,-9.124394E-2,6.2131635E-3,-1.1553692E-1,1.1229686E-1,5.0041914E-2,-7.998294E-3,5.680076E-2,-4.5775328E-2,-1.0779353E-1,-3.0250061E-2,1.2139616E0,-8.831208E-2,-2.184505E-2,1.1808801E-1,-8.8176364E-1,-1.0567083E0,-1.6398578E0,1.5674634E0,1.317354E-1,1.2758887E0,7.767288E-2,1.372502E0,2.9241556E-2,1.372502E0,-7.020558E-2,3.2958303E-2,2.0980228E-1,-1.1678171E-2,1.12142585E-1,-1.810591E-4,2.553775E-1,3.2858934E-2,1.3342037E0,-4.7355914E-1,1.8977295E-1,-1.2462723E-1,-1.0813689E-1,-1.7891822E-2,1.3715041E0,-1.0352905E0,5.7243712E-2,4.0116483E-1,-1.0423014E-1,7.992124E-2,-1.1906663E-1,1.5517681E0,3.3058874E-2,-1.0197767E-1,-1.17130056E-1,-9.147948E-1,5.611453E-3,-8.456246E-2,6.823441E-1,-7.7781454E-2,-5.1229604E-2,1.1732934E-1],"split_indices":[0,2,4,1,0,3,1,1,3,0,2,2,0,3,3,0,3,0,0,3,0,4,3,4,0,4,4,0,3,1,0,2,0,1,3,7,0,0,0,2,2,0,0,0,3,0,3,3,0,0,0,3,0,3,0,1,0,0,0,3,0,1,0,1,2,0,7,0,0,0,1,0,0,0,3,3,0,3,0,0,0,0,0,2,0,0,0,0,0,0,1,0,2,0,0,0,0,0,1,0,0,0,0,0,0,0,0,0,0,0,0,0,0,1,1,1,1,0,1,0,2,0,2,0,0,3,0,0,0,1,0,1,1,3,0,0,0,3,0,0,1,0,0,0,3,0,0,0,0,0,0,4,0,0,0],"split_type":[0,0,0,0,0,0,0,0,0,0,0,0,0,0,0,0,0,0,0,0,0,0,0,0,0,0,0,0,0,0,0,0,0,0,0,0,0,0,0,0,0,0,0,0,0,0,0,0,0,0,0,0,0,0,0,0,0,0,0,0,0,0,0,0,0,0,0,0,0,0,0,0,0,0,0,0,0,0,0,0,0,0,0,0,0,0,0,0,0,0,0,0,0,0,0,0,0,0,0,0,0,0,0,0,0,0,0,0,0,0,0,0,0,0,0,0,0,0,0,0,0,0,0,0,0,0,0,0,0,0,0,0,0,0,0,0,0,0,0,0,0,0,0,0,0,0,0,0,0,0,0,0,0,0,0],"sum_hessian":[2.4088018E3,6.777128E2,1.731089E3,2.7687485E2,4.0083795E2,1.40731E3,3.2377887E2,2.5453246E2,2.2342396E1,1.4350008E2,2.573379E2,1.4060978E3,1.2123433E0,1.2446937E2,1.993095E2,6.781968E0,2.4775049E2,2.1342396E1,1E0,2.549449E2,2.392992E0,1.378058E3,2.8039766E1,1.1807591E2,6.393452E0,3.621046E1,1.6309903E2,2.3929918E0,2.453575E2,2.5275578E2,2.189106E0,1.1647543E3,2.1330371E2,2.2613426E1,5.426339E0,3.7838093E1,8.023782E1,3.344182E0,3.0492704E0,1.1012367E1,2.5198092E1,1.51974E2,1.1125031E1,2.4112238E2,4.235118E0,2.4939308E2,3.3627145E0,6.934049E1,1.0954138E3,1.7075077E0,2.115962E2,2.0012447E1,2.600979E0,2.6302361E0,2.7961028E0,4.3128715E0,3.352522E1,2.1596143E0,1.1845678E0,4.2779717E0,6.734396E0,2.3973656E1,1.2244357E0,7.982783E0,1.4399123E2,1.6846112E0,2.3943776E2,2.7983382E0,1.4367797E0,1.5215741E2,9.7235664E1,1.6472416E0,1.7154728E0,3.6104603E1,3.3235886E1,3.1312075E0,2.08465E2,9.04049E0,1.0971958E1,1.220227E0,1.3807521E0,1.4670436E0,1.1631925E0,2.5636115E0,1.7492602E0,2.0082722E0,2.2696993E0,2.2924032E1,1.0496236E0,4.6002555E0,3.382527E0,3.741678E0,1.4024954E2,8.113278E0,2.313245E2,2.766962E1,6.956605E1,1.1399823E0,3.2095905E1,1.8485029E0,1.2827048E0,7.7940516E0,1.2464384E0,1.1747509E0,1.3888605E0,1.4367797E0,1.9457474E0,2.6411843E0,1.1004936E0,1.3888925E2,1.3602844E0,2.137783E0,5.975495E0,6.9816046E0,6.2584442E1,2.3637705E0,2.9732134E1,1.3436961E2,4.5196443E0,1.2181795E0,5.763425E0,1.3641007E0,6.122034E1,1.0141143E0,1.3496563E0,2.8195807E1,1.5363278E0,2.6709127E0,1.8487315E0,4.5544567E0,1.208968E0,5.064538E1,1.0574962E1,4.025718E0,2.4170088E1,2.4402895E0,2.1141675E0,4.625866E1,4.386719E0,1.1174424E0,9.457519E0,3.0192888E0,1.0064296E0,4.312431E1,3.1343503E0,2.1943228E0,2.1923966E0,4.2236586E0,5.2338605E0,1.8156953E0,1.318655E0,2.786695E0,2.4471655E0,1.540614E0,1.246081E0],"tree_param":{"num_deleted":"0","num_feature":"8","num_nodes":"155","size_leaf_vector":"0"}},{"base_weights":[-6.7617244E-1,2.693868E-1,-1.0472621E0,9.662269E-1,-2.0997256E-1,-1.2595239E0,-1.2884949E-1,1.1537694E0,-1.1017643E0,1.3130966E0,-1.047713E0,-1.2614492E0,4.6848258E-1,-1.169544E0,5.247075E-1,-1.1764861E0,1.2229043E0,-1.1536878E0,-0E0,-1.071062E0,9.924301E-1,-1.2683396E0,-8.9601666E-1,-1.1908113E0,-4.2291656E-1,-1.1101645E0,8.959245E-1,-9.924301E-1,1.2492423E0,-7.554685E-1,-1.2685012E0,-1.0929214E0,9.714389E-1,-1.2876437E0,-1.1579795E0,-6.343915E-1,-1.1234928E0,-1.0021094E0,-1.266055E0,-9.062656E-1,6.717543E-2,-7.52213E-1,-1.233026E0,1.0587771E0,-1.2278028E0,1.2827307E0,-4.8611268E-1,-1.1272038E0,4.8726496E-1,-1.1124618E0,-3.7825263E-1,-1.1147854E0,-1.2976338E0,-4.3416537E-2,-1.1672245E0,1.7207338E-1,-8.150852E-1,-3.0122483E-1,-1.082823E0,-1.2798264E0,-4.8696867E-1,-9.7410664E-2,2.069955E-1,-2.2355586E-2,-1.1703981E0,-1.2674569E0,-3.058374E-1,-6.856998E-1,1.162464E0,-4.9086234E-1,1.3018414E0,-1.0273395E0,5.386432E-1,-1.3232625E0,-1.0739652E0,1.0078822E-1,-1.0673089E0,-1.2539452E0,-9.3244106E-1,-5.662842E-1,-1.173656E0,-5.0054747E-1,8.447414E-1,-9.3991077E-1,-1.4739585E-1,2.4492547E-1,-9.117482E-1,-1.0183039E0,8.71297E-1,-1.3041807E0,-2.3905575E-1,-1.121011E0,9.95326E-3,-9.181054E-1,1.2261286E0,8.5362834E-1,1.313513E0,-4.1851583E-1,-1.120278E0,-6.655374E-1,7.0641136E-1,4.990521E-1,-1.0003372E0,-8.768242E-1,5.8558572E-2,-1.1410816E0,-1.1074238E-1,5.5180246E-1,-7.8113866E-1,-5.9251413E-2,4.6280652E-1,5.386432E-1,-4.2988473E-1,-1.0418679E0,-2.5957006E-1,1.253377E0,-8.46742E-1,-8.254216E-2,1.135396E0,-1.128678E0,3.2490995E-2,-1.0298615E0,-1.238582E0,-1.4641747E-1,1.1728663E0,-1.837349E-1,-1.0592875E0,5.284718E-1,-7.2016823E-1,1.2669394E0,7.0405895E-1,-7.9689354E-1,2.5400084E-1,-1.07725E0,-7.2513413E-1,-1.2690752E0,-7.348034E-1,3.3515638E-1,-6.963487E-1,-1.1075745E0,-1.0998858E-1,1.0499583E0,-3.6110412E-2,1.2492896E0,-9.099762E-2,-6.459757E-1,-1.1076986E0,-1.1220797E0,5.2481078E-2,2.6502374E-1,-9.609031E-1,-4.7986463E-1,-1.1904601E0,-6.1104053E-1,4.9402127E-1,5.3740394E-1,-9.165248E-1,-1.2389555E0,-3.3293626E-1,-7.39894E-1,6.8139637E-1,-1.0011966E0,7.4550146E-1,-1.7060076E-3,-9.047603E-1,-3.6807454E-1,1.4366443E0,-3.5996237E-1,-1.1012889E0,-2.1497844E-1,-8.625699E-1,1.1038879E0,3.8193163E-2,1.7856422E-1,-7.3452365E-1],"categories":[],"categories_nodes":[],"categories_segments":[],"categories_sizes":[],"default_left":[true,true,true,true,true,true,true,true,true,false,true,true,false,true,true,false,true,true,false,true,false,true,true,true,true,true,true,false,true,true,false,true,false,true,true,true,false,true,true,false,true,true,true,true,false,true,true,false,false,true,true,true,false,false,true,true,true,true,false,false,false,false,false,true,false,true,false,true,true,false,true,false,false,false,true,true,false,false,true,true,false,false,false,true,true,true,false,false,false,false,false,false,true,true,true,true,false,true,true,false,true,false,true,false,false,false,true,false,false,false,false,false,false,false,false,true,false,false,false,false,true,true,true,false,false,true,true,false,false,false,true,false,true,true,true,false,true,false,false,true,false,false,false,false,true,true,false,true,true,false,false,true,false,true,true,false,true,false,false,true,true,false,false,false,false,false,false,true,false,false,false,false,false,false,false],"id":7,"left_children":[1,3,5,7,9,11,13,15,17,-1,19,21,-1,23,25,-1,27,29,-1,31,-1,33,35,37,39,41,43,-1,45,47,-1,49,-1,51,53,55,-1,57,59,-1,61,63,65,67,-1,69,71,-1,-1,73,75,77,-1,-1,79,81,83,85,-1,-1,-1,-1,-1,87,-1,89,-1,91,93,-1,95,-1,-1,-1,97,99,-1,-1,101,103,-1,-1,-1,105,107,109,-1,-1,-1,-1,-1,-1,111,113,115,117,-1,119,121,-1,123,-1,125,-1,-1,-1,127,-1,-1,-1,-1,-1,-1,-1,-1,129,-1,-1,-1,-1,131,133,135,-1,-1,137,139,-1,-1,-1,141,-1,143,145,147,-1,149,-1,-1,151,-1,-1,-1,-1,153,155,-1,157,159,-1,-1,161,-1,163,165,-1,167,-1,-1,169,171,-1,-1,-1,-1,-1,-1,173,-1,-1,-1,-1,-1,-1,-1],"loss_changes":[7.962578E2,2.1403624E2,3.1746313E2,1.02523865E2,4.8633142E2,4.993408E0,2.0941129E2,4.0079407E1,1.2710915E0,0E0,1.2769897E1,2.192627E0,0E0,1.3816528E0,1.1585303E2,0E0,1.4859894E1,1.1838913E-2,0E0,1.1931793E1,0E0,1.2683105E0,9.461975E-1,3.625641E-1,1.2071748E0,6.323128E-1,5.4834442E1,0E0,1.40555725E1,3.885219E0,0E0,2.9497375E0,0E0,4.4177246E-1,2.0386353E0,2.3641925E0,0E0,1.7980003E0,2.1730042E-1,0E0,9.688121E-2,3.5227156E0,4.0536118E-1,2.689833E1,0E0,8.334137E0,3.3825364E0,0E0,0E0,4.8117065E-1,2.7280176E0,5.268631E-1,0E0,0E0,1.1242676E-1,2.0603418E0,9.151211E-1,1.9781806E0,0E0,0E0,0E0,0E0,0E0,5.5642567E0,0E0,5.807648E-1,0E0,2.6532207E0,1.9216522E1,0E0,5.517578E-2,0E0,0E0,0E0,5.70932E0,3.0676017E0,0E0,0E0,3.6902199E0,8.394029E-1,0E0,0E0,0E0,1.6192408E0,1.8388907E0,2.637686E-1,0E0,0E0,0E0,0E0,0E0,0E0,1.2429457E0,1.0666704E-1,8.570602E0,2.3526626E0,0E0,4.8499784E0,7.514038E-1,0E0,1.608303E0,0E0,1.3303089E0,0E0,0E0,0E0,1.6079714E0,0E0,0E0,0E0,0E0,0E0,0E0,0E0,0E0,8.8638306E-2,0E0,0E0,0E0,0E0,2.069538E0,8.555908E-1,2.527237E-1,0E0,0E0,1.1225115E0,1.2228584E0,0E0,0E0,0E0,1.426173E0,0E0,3.1282144E0,5.454788E-1,5.7116613E0,0E0,1.7871082E0,0E0,0E0,8.7537766E-1,0E0,0E0,0E0,0E0,2.5688624E0,3.2881238E0,0E0,7.098694E-1,4.064444E0,0E0,0E0,3.888463E0,0E0,7.8448224E-1,3.8277593E0,0E0,3.7241316E-1,0E0,0E0,4.9010873E-2,1.1816752E0,0E0,0E0,0E0,0E0,0E0,0E0,8.066868E-1,0E0,0E0,0E0,0E0,0E0,0E0,0E0],"parents":[2147483647,0,0,1,1,2,2,3,3,4,4,5,5,6,6,7,7,8,8,10,10,11,11,13,13,14,14,16,16,17,17,19,19,21,21,22,22,23,23,24,24,25,25,26,26,28,28,29,29,31,31,33,33,34,34,35,35,37,37,38,38,40,40,41,41,42,42,43,43,45,45,46,46,49,49,50,50,51,51,54,54,55,55,56,56,57,57,63,63,65,65,67,67,68,68,70,70,74,74,75,75,78,78,79,79,83,83,84,84,85,85,92,92,93,93,94,94,95,95,97,97,98,98,100,100,102,102,106,106,115,115,120,120,121,121,122,122,125,125,126,126,130,130,132,132,133,133,134,134,136,136,139,139,144,144,145,145,147,147,148,148,151,151,153,153,154,154,156,156,159,159,160,160,167,167],"right_children":[2,4,6,8,10,12,14,16,18,-1,20,22,-1,24,26,-1,28,30,-1,32,-1,34,36,38,40,42,44,-1,46,48,-1,50,-1,52,54,56,-1,58,60,-1,62,64,66,68,-1,70,72,-1,-1,74,76,78,-1,-1,80,82,84,86,-1,-1,-1,-1,-1,88,-1,90,-1,92,94,-1,96,-1,-1,-1,98,100,-1,-1,102,104,-1,-1,-1,106,108,110,-1,-1,-1,-1,-1,-1,112,114,116,118,-1,120,122,-1,124,-1,126,-1,-1,-1,128,-1,-1,-1,-1,-1,-1,-1,-1,130,-1,-1,-1,-1,132,134,136,-1,-1,138,140,-1,-1,-1,142,-1,144,146,148,-1,150,-1,-1,152,-1,-1,-1,-1,154,156,-1,158,160,-1,-1,162,-1,164,166,-1,168,-1,-1,170,172,-1,-1,-1,-1,-1,-1,174,-1,-1,-1,-1,-1,-1,-1],"split_conditions":[-5.934731E-1,-1.0585942E0,6.823441E-1,-8.2344866E-1,-1.9992555E0,1.7120028E0,5.1779467E-1,-1.5815427E0,1.5317388E0,1.3130967E-1,2.1828675E0,1.372502E0,4.684826E-2,1.4716507E0,3.0994898E-1,-1.1764862E-1,-1.512721E0,-9.6191406E-1,-0E0,1.7620761E0,9.924301E-2,-1.1107028E-3,4.9098775E-1,1.3657988E0,2.4122828E-1,1.3657988E0,2.0492535E0,-9.924301E-2,-7.51606E-1,-1.1121341E0,-1.2685011E-1,1.5674634E0,9.714389E-2,-1.0585942E0,-5.5330783E-1,-6.845654E-1,-1.1234929E-1,-1.3575002E0,1.431592E0,-9.062656E-2,-2.1190351E-1,-2.4822886E-1,1.372502E0,4.106573E-1,-1.2278028E-1,-1.0955381E0,6.604624E-1,-1.12720385E-1,4.8726495E-2,-1.3925449E0,6.823441E-1,-9.063781E-2,-1.2976338E-1,-4.341654E-3,-5.1314265E-1,8.6768425E-1,3.3032688E-1,7.922269E-1,-1.08282305E-1,-1.2798265E-1,-4.8696868E-2,-9.741067E-3,2.0699551E-2,-1.1822368E0,-1.17039815E-1,1.5674634E0,-3.058374E-2,1.1592588E0,-2.4822886E-1,-4.9086235E-2,-1.3575002E0,-1.0273395E-1,5.386432E-2,-1.3232625E-1,-1.1922514E0,-2.2082853E-1,-1.0673089E-1,-1.2539452E-1,-5.057913E-2,9.964091E-2,-1.173656E-1,-5.0054748E-2,8.447414E-2,1.1411667E0,-1.0065248E-1,-3.309899E-1,-9.117482E-2,-1.01830386E-1,8.7129705E-2,-1.3041808E-1,-2.3905575E-2,-1.121011E-1,1.3050462E0,1.4816654E0,1.372502E0,-9.5496E-1,1.313513E-1,-2.4822886E-1,6.823441E-1,-6.655374E-2,-1.7984295E0,4.990521E-2,-1.3774405E0,-8.768242E-2,5.8558574E-3,-1.1410816E-1,-2.9861432E-1,5.5180248E-2,-7.811387E-2,-5.9251413E-3,4.6280652E-2,5.386432E-2,-4.2988475E-2,-1.0418679E-1,-2.5957007E-2,1.2139616E0,-8.46742E-2,-8.254216E-3,1.135396E-1,-1.12867795E-1,-1.348283E0,-7.942991E-1,1.5117093E0,-1.4641747E-2,1.1728664E-1,6.925299E-2,1.5674634E0,5.2847184E-2,-7.201683E-2,1.2669395E-1,2.4122828E-1,-7.968935E-2,-9.4007856E-1,-1.8787599E0,-1.1107028E-3,-1.2690751E-1,1.5317388E0,3.351564E-2,-6.963488E-2,2.0980228E-1,-1.0998858E-2,1.0499584E-1,-3.6110412E-3,1.24928966E-1,-1.2561991E0,-8.317234E-1,-1.1076986E-1,-6.3363826E-1,-1.3069649E-1,2.6502375E-2,-9.609031E-2,1.8977295E-1,-1.1904601E-1,-1.6377686E0,-1.2523395E0,5.3740393E-2,-1.1107028E-3,-1.2389555E-1,-3.3293627E-2,-8.317234E-1,-7.5413394E-1,-1.00119665E-1,7.4550144E-2,-1.7060076E-4,-9.047603E-2,-3.6807455E-2,1.4366443E-1,-3.619715E-2,-1.10128894E-1,-2.1497844E-2,-8.6256996E-2,1.1038879E-1,3.8193164E-3,1.7856423E-2,-7.345237E-2],"split_indices":[0,2,4,1,0,3,1,1,3,0,2,2,0,3,3,0,3,3,0,3,0,4,0,4,7,4,4,0,3,3,0,1,0,2,0,4,0,7,3,0,0,2,2,0,0,0,3,0,0,3,4,3,0,0,0,1,0,0,0,0,0,0,0,3,0,1,0,1,2,0,7,0,0,0,3,3,0,0,3,3,0,0,0,3,3,3,0,0,0,0,0,0,1,3,2,0,0,2,4,0,0,0,1,0,0,0,1,0,0,0,0,0,0,0,0,0,0,0,0,0,1,0,3,0,0,0,1,0,0,0,7,0,1,0,4,0,3,0,0,3,0,0,0,0,0,3,0,0,3,0,0,3,0,0,3,0,4,0,0,3,0,0,0,0,0,0,0,1,0,0,0,0,0,0,0],"split_type":[0,0,0,0,0,0,0,0,0,0,0,0,0,0,0,0,0,0,0,0,0,0,0,0,0,0,0,0,0,0,0,0,0,0,0,0,0,0,0,0,0,0,0,0,0,0,0,0,0,0,0,0,0,0,0,0,0,0,0,0,0,0,0,0,0,0,0,0,0,0,0,0,0,0,0,0,0,0,0,0,0,0,0,0,0,0,0,0,0,0,0,0,0,0,0,0,0,0,0,0,0,0,0,0,0,0,0,0,0,0,0,0,0,0,0,0,0,0,0,0,0,0,0,0,0,0,0,0,0,0,0,0,0,0,0,0,0,0,0,0,0,0,0,0,0,0,0,0,0,0,0,0,0,0,0,0,0,0,0,0,0,0,0,0,0,0,0,0,0,0,0,0,0,0,0],"sum_hessian":[2.267466E3,6.39149E2,1.628317E3,2.6007086E2,3.7907816E2,1.3223308E3,3.0598618E2,2.3885188E2,2.121897E1,1.3431567E2,2.4476248E2,1.3211289E3,1.2019507E0,1.17729515E2,1.8825665E2,6.4206634E0,2.3243121E2,2.021897E1,1E0,2.4246257E2,2.299918E0,1.294254E3,2.6874903E1,1.1389049E2,3.8390288E0,3.4467625E1,1.5378902E2,2.299918E0,2.301313E2,6.2212214E0,1.3997748E1,2.4035513E2,2.1074405E0,1.0924902E3,2.0176375E2,1.4261395E1,1.2613508E1,3.654883E1,7.734166E1,1.5052824E0,2.3337464E0,1.0627456E1,2.384017E1,1.4330174E2,1.0487272E1,2.2603026E2,4.101042E0,4.860329E0,1.3608922E0,2.3341646E2,6.938672E0,6.584086E1,1.0266494E3,1.7066716E0,2.0005708E2,2.619199E0,1.1642197E1,4.262966E0,3.2285862E1,7.536672E1,1.9749372E0,1.2112566E0,1.1224898E0,4.2548814E0,6.372574E0,2.263272E1,1.2074492E0,7.724701E0,1.3557704E2,2.1463892E0,2.2388387E2,2.6820114E0,1.4190305E0,3.0890707E1,2.0252576E2,4.59671E0,2.3419623E0,3.4009224E1,3.1831636E1,3.0613422E0,1.9699574E2,1.4375887E0,1.1816103E0,9.4649935E0,2.177203E0,2.5661848E0,1.6967815E0,1.9463023E0,2.308579E0,2.159346E1,1.03926E0,4.3753405E0,3.3493605E0,3.6269412E0,1.319501E2,7.5636606E0,2.163202E2,1.4028059E1,1.884977E2,1.9854674E0,2.6112425E0,1.1538628E0,3.0677774E1,1.7756112E0,1.2857311E0,7.3142524E0,2.150741E0,1.0966179E0,1.080585E0,1.3748525E0,1.1913321E0,1.4190305E0,1.9303299E0,2.563137E0,1.0638041E0,1.3062831E2,1.3217936E0,1.9134146E0,5.650246E0,4.8649936E0,9.163066E0,1.1234248E2,7.615521E1,1.165833E0,1.4454097E0,2.342693E0,2.8335081E1,1.1145496E0,1.0361916E0,1.2620594E2,4.4223733E0,1.3838933E0,7.7791724E0,9.502921E1,1.7313269E1,7.03763E1,5.7789154E0,1.3362556E0,1.0064377E0,2.68049E1,1.5301815E0,2.7286637E0,1.6937097E0,1.3277088E0,6.451463E0,7.7317576E0,8.7297455E1,1.1168939E1,6.1443305E0,1.0340644E0,4.744851E0,3.9185326E0,2.2886368E1,3.3918524E0,3.059611E0,1.2551957E0,6.476562E0,9.231683E0,1.937255E0,2.6407585E0,3.503572E0,2.8773184E0,1.0412143E0,1.4303459E0,1.9615065E0,1.916425E0,1.1431861E0,2.348982E0,4.1275797E0,1.0216501E0,1.6191084E0,1.6823053E0,1.8212668E0,1.1782379E0,1.1707442E0],"tree_param":{"num_deleted":"0","num_feature":"8","num_nodes":"175","size_leaf_vector":"0"}},{"base_weights":[-6.519615E-1,2.5776348E-1,-1.0101308E0,9.314183E-1,-2.0199549E-1,-1.2156289E0,-1.265116E-1,1.1144422E0,-1.0547965E0,1.2729741E0,-9.9839586E-1,-1.2175865E0,4.4526455E-1,-1.1222111E0,5.004937E-1,-1.1328179E0,1.1820306E0,-1.107185E0,-0E0,-1.0211095E0,9.5208484E-1,-1.2247841E0,-8.4754026E-1,-1.1512209E0,-5.3368497E-1,-1.064289E0,8.594636E-1,-9.5208484E-1,1.2082233E0,-7.1384025E-1,-1.2232765E0,-1.0424175E0,9.3190986E-1,-1.2452533E0,-1.1090729E0,-9.42944E-1,-3.749044E-1,-9.4750696E-1,-1.2361016E0,4.176222E-2,-1.0359435E0,-7.150491E-1,-1.1860191E0,1.0166348E0,-1.1847581E0,1.241594E0,-4.6052185E-1,-1.0848739E0,4.5291308E-1,-1.0617532E0,-3.566222E-1,-1.0663815E0,-1.2557654E0,-4.0691648E-2,-1.1184701E0,-1.0022488E0,-3.4895724E-1,3.5485262E-1,-9.9690384E-1,-2.8417543E-1,-1.0278122E0,-8.0738825E-1,6.002931E-1,-2.3959303E-2,-1.1273955E0,-1.2207638E0,-2.9138976E-1,-6.4960855E-1,1.1187105E0,-6.16589E-1,1.2590227E0,-9.8580444E-1,5.111813E-1,-1.2770255E0,-1.022952E0,9.803313E-2,-1.0208555E0,-1.208069E0,-8.840283E-1,-5.3986114E-1,-1.1248523E0,-6.5709597E-1,-1.2064308E0,3.0950558E-1,-8.299487E-1,-1.8894033E-1,8.13825E-1,2.4453457E-1,-8.868372E-1,-9.7384006E-1,8.0318314E-1,-1.2581099E0,-2.2805418E-1,-1.0775081E0,1.1585992E-2,-8.776552E-1,1.1819623E0,7.4446577E-1,1.2743334E0,-3.9073396E-1,-1.0688965E0,-6.313708E-1,6.6684157E-1,4.6958682E-1,-9.516975E-1,-8.43954E-1,5.519244E-2,-1.0580143E0,1.0799717E0,4.7536668E-1,-6.965788E-2,5.111813E-1,-4.03906E-1,-9.980631E-1,-2.4729443E-1,1.209277E0,-8.132786E-1,-1.9358267E-1,1.0947602E0,-1.0862036E0,3.4434494E-2,-1.013068E0,-1.2806987E0,-1.3860463E-1,1.1094159E0,-1.776618E-1,-1.0096642E0,1.2232515E0,6.677498E-1,-7.6796174E-1,2.4440822E-1,-1.1171895E0,-8.573968E-1,-1.0580344E0,-1.03588946E-1,1.0460662E0,-4.1413978E-2,1.1544118E0,-8.140299E-2,-6.294669E-1,-1.1492249E0,-2.4594633E-1,-9.704846E-1,-4.4876742E-1,-1.1408402E0,-5.8254075E-1,4.6913075E-1,1.5357186E-1,-9.111249E-1,-1.1157566E0,7.86016E-1,-5.837637E-1,-1.0136224E0,-9.637181E-1,6.9634265E-1,-1.6055969E-3,-8.706954E-1,-3.465547E-1,1.3394533E0,-2.523954E-1,-1.0231142E0,1.101303E0,4.9128253E-2,-1.0404986E0,2.416027E-2,-6.966895E-1,-1.1271943E0,1.1336292E-1,1.4403595E0,5.142214E-1,-3.1175584E-1,-9.7781934E-2,-8.6171746E-1,-1.1678172E0,-3.0773363E-1,-7.3040617E-1,2.9571488E-1,-8.8741857E-1,9.841471E-1,-4.1017765E-1,-1.023974E0,-1.2126129E0,-5.064014E-1,-6.679432E-1,2.0859897E-1,-1.1153324E0,-3.231221E-1,-8.079562E-1,3.454879E-2,-7.8774935E-1,-2.0650081E-1],"categories":[],"categories_nodes":[],"categories_segments":[],"categories_sizes":[],"default_left":[true,true,true,true,true,true,true,true,true,false,true,true,false,true,true,false,true,true,false,true,false,true,true,true,true,true,true,false,true,true,false,true,false,true,true,true,true,true,false,true,false,true,true,true,false,true,true,false,false,true,true,true,false,false,true,true,true,true,false,true,false,false,false,true,false,true,false,true,true,false,true,false,false,false,true,true,false,false,true,true,false,true,false,false,false,false,false,true,false,false,false,false,false,false,true,true,true,true,false,true,true,false,true,false,true,false,false,false,false,false,false,false,false,false,false,true,false,false,false,false,true,true,false,false,false,false,true,false,true,false,true,true,true,true,false,false,false,false,true,true,false,true,true,true,false,true,true,false,true,false,true,true,true,false,false,false,false,false,false,false,false,true,false,false,true,true,true,false,false,false,true,true,true,true,false,false,false,false,false,true,true,false,true,true,false,false,false,false,false,false,false],"id":8,"left_children":[1,3,5,7,9,11,13,15,17,-1,19,21,-1,23,25,-1,27,29,-1,31,-1,33,35,37,39,41,43,-1,45,47,-1,49,-1,51,53,55,57,59,-1,61,-1,63,65,67,-1,69,71,-1,-1,73,75,77,-1,-1,79,81,83,85,-1,87,-1,-1,-1,89,-1,91,-1,93,95,-1,97,-1,-1,-1,99,101,-1,-1,103,105,-1,107,-1,-1,-1,-1,-1,109,-1,-1,-1,-1,-1,-1,111,113,115,117,-1,119,121,-1,123,-1,125,-1,-1,-1,-1,-1,-1,-1,-1,-1,-1,127,-1,-1,-1,-1,129,131,-1,-1,-1,-1,133,-1,135,-1,137,139,141,143,-1,-1,-1,-1,145,147,-1,149,151,153,-1,155,157,-1,159,-1,161,163,165,-1,-1,-1,-1,-1,-1,-1,-1,167,-1,-1,169,171,173,-1,-1,-1,175,177,179,181,-1,-1,-1,-1,-1,183,185,-1,187,189,-1,-1,-1,-1,-1,-1,-1],"loss_changes":[6.9377484E2,1.8665648E2,2.77188E2,9.001991E1,4.2257648E2,4.5705566E0,1.8117664E2,3.5402008E1,1.1678562E0,0E0,1.1315247E1,2.2589111E0,0E0,1.2993927E0,1.0101689E2,0E0,1.3347656E1,4.6180725E-2,0E0,1.0595367E1,0E0,1.489624E0,8.578472E-1,6.610565E-1,2.1040075E0,5.846443E-1,4.795558E1,0E0,1.2600098E1,3.5171187E0,0E0,2.6610718E0,0E0,5.8203125E-1,1.8753052E0,4.1440964E-1,3.1552718E0,1.5962601E0,0E0,2.5165455E0,0E0,3.1728163E0,3.7387085E-1,2.3799942E1,0E0,7.64328E0,3.0377355E0,0E0,0E0,5.5171204E-1,2.4531465E0,5.685806E-1,0E0,0E0,9.295654E-2,5.5960464E-1,1.3664466E0,1.0466524E0,0E0,1.8770316E0,0E0,0E0,0E0,4.88173E0,0E0,5.391159E-1,0E0,2.4070172E0,1.7225021E1,0E0,7.0880127E-1,0E0,0E0,0E0,5.2029266E0,2.7186728E0,0E0,0E0,3.3252869E0,7.688595E-1,0E0,7.639288E0,0E0,0E0,0E0,0E0,0E0,2.9125273E-1,0E0,0E0,0E0,0E0,0E0,0E0,1.10209E0,9.555626E-2,7.7787323E0,2.9998288E0,0E0,4.3797836E0,8.287964E-1,0E0,1.4362963E0,0E0,1.178257E0,0E0,0E0,0E0,0E0,0E0,0E0,0E0,0E0,0E0,0E0,1.1703491E-1,0E0,0E0,0E0,0E0,1.886521E0,1.4262695E0,0E0,0E0,0E0,0E0,1.1147823E0,0E0,1.4669757E0,0E0,2.6883655E0,6.021347E-1,4.1350365E0,8.205509E-1,0E0,0E0,0E0,0E0,2.3087034E0,1.780824E0,0E0,1.0941013E1,2.931137E-1,3.5066154E0,0E0,7.197765E-1,3.3531241E0,0E0,1.5607357E-1,0E0,1.273598E0,2.1577873E0,8.833809E-1,0E0,0E0,0E0,0E0,0E0,0E0,0E0,0E0,1.1617088E0,0E0,0E0,8.6362135E-1,1.3833013E0,7.228737E-1,0E0,0E0,0E0,1.0189712E0,4.5773826E0,4.2347622E-1,2.930832E-1,0E0,0E0,0E0,0E0,0E0,8.9083815E-1,1.391077E-1,0E0,6.248192E-1,3.4364223E-2,0E0,0E0,0E0,0E0,0E0,0E0,0E0],"parents":[2147483647,0,0,1,1,2,2,3,3,4,4,5,5,6,6,7,7,8,8,10,10,11,11,13,13,14,14,16,16,17,17,19,19,21,21,22,22,23,23,24,24,25,25,26,26,28,28,29,29,31,31,33,33,34,34,35,35,36,36,37,37,39,39,41,41,42,42,43,43,45,45,46,46,49,49,50,50,51,51,54,54,55,55,56,56,57,57,59,59,63,63,65,65,67,67,68,68,70,70,74,74,75,75,78,78,79,79,81,81,87,87,94,94,95,95,96,96,97,97,99,99,100,100,102,102,104,104,115,115,120,120,121,121,126,126,128,128,130,130,131,131,132,132,133,133,138,138,139,139,141,141,142,142,143,143,145,145,146,146,148,148,150,150,151,151,152,152,161,161,164,164,165,165,166,166,170,170,171,171,172,172,173,173,179,179,180,180,182,182,183,183],"right_children":[2,4,6,8,10,12,14,16,18,-1,20,22,-1,24,26,-1,28,30,-1,32,-1,34,36,38,40,42,44,-1,46,48,-1,50,-1,52,54,56,58,60,-1,62,-1,64,66,68,-1,70,72,-1,-1,74,76,78,-1,-1,80,82,84,86,-1,88,-1,-1,-1,90,-1,92,-1,94,96,-1,98,-1,-1,-1,100,102,-1,-1,104,106,-1,108,-1,-1,-1,-1,-1,110,-1,-1,-1,-1,-1,-1,112,114,116,118,-1,120,122,-1,124,-1,126,-1,-1,-1,-1,-1,-1,-1,-1,-1,-1,128,-1,-1,-1,-1,130,132,-1,-1,-1,-1,134,-1,136,-1,138,140,142,144,-1,-1,-1,-1,146,148,-1,150,152,154,-1,156,158,-1,160,-1,162,164,166,-1,-1,-1,-1,-1,-1,-1,-1,168,-1,-1,170,172,174,-1,-1,-1,176,178,180,182,-1,-1,-1,-1,-1,184,186,-1,188,190,-1,-1,-1,-1,-1,-1,-1],"split_conditions":[-5.934731E-1,-1.0585942E0,6.823441E-1,-8.2344866E-1,-1.9992555E0,1.7120028E0,5.1779467E-1,-1.5815427E0,1.5317388E0,1.2729742E-1,2.1828675E0,1.372502E0,4.4526454E-2,1.431592E0,3.0994898E-1,-1.1328179E-1,-1.512721E0,-9.6191406E-1,-0E0,1.7620761E0,9.520849E-2,-1.1107028E-3,1.0009612E0,1.3657988E0,-5.1242653E-2,1.3657988E0,2.0492535E0,-9.520849E-2,-7.51606E-1,-1.1121341E0,-1.2232765E-1,1.5674634E0,9.319099E-2,-1.0585942E0,-5.5330783E-1,1.3050462E0,1.3014014E0,-1.3575002E0,-1.2361016E-1,-4.328122E-1,-1.03594355E-1,-2.4822886E-1,1.372502E0,4.106573E-1,-1.1847581E-1,-1.1959512E0,6.604624E-1,-1.0848739E-1,4.529131E-2,-1.3925449E0,6.823441E-1,-9.063781E-2,-1.2557654E-1,-4.069165E-3,-5.1314265E-1,-7.8165007E-1,2.4122828E-1,1.1111226E0,-9.9690385E-2,-7.6513374E-1,-1.0278123E-1,-8.073883E-2,6.002931E-2,-1.1822368E0,-1.12739556E-1,1.5674634E0,-2.9138977E-2,1.1592588E0,-2.4822886E-1,-6.16589E-2,-1.3575002E0,-9.858044E-2,5.111813E-2,-1.2770255E-1,-1.1922514E0,-2.2082853E-1,-1.0208555E-1,-1.20806895E-1,-5.057913E-2,9.964091E-2,-1.1248523E-1,-9.318701E-1,-1.2064308E-1,3.095056E-2,-8.299487E-2,-1.8894034E-2,8.1382506E-2,-2.4822886E-1,-8.868372E-2,-9.7384006E-2,8.031832E-2,-1.25811E-1,-2.2805419E-2,-1.0775081E-1,1.3050462E0,1.0131356E0,1.372502E0,-9.5496E-1,1.2743334E-1,-2.4822886E-1,1.3657988E0,-6.313708E-2,-1.7984295E0,4.695868E-2,-1.3774405E0,-8.43954E-2,5.5192444E-3,-1.05801426E-1,1.0799717E-1,4.7536667E-2,-6.9657876E-3,5.111813E-2,-4.03906E-2,-9.980631E-2,-2.4729444E-2,1.2139616E0,-8.132786E-2,-1.9358268E-2,1.0947602E-1,-1.0862036E-1,-1.348283E0,2.0980228E-1,-1.2806986E-1,-1.3860463E-2,1.1094159E-1,-1.7766181E-2,1.5674634E0,1.22325145E-1,1.2758887E0,-7.6796174E-2,-9.4007856E-1,-1.8787599E0,3.7003702E-1,2.0980228E-1,-1.0358895E-2,1.0460662E-1,-4.141398E-3,1.1544118E-1,-1.2561991E0,-8.417381E-1,-1.14922486E-1,-1.4771078E0,-6.845654E-1,1.8977295E-1,-1.1408402E-1,-1.6377686E0,-1.2523395E0,1.5357186E-2,-9.69236E-1,-1.1157566E-1,2.553775E-1,2.4122828E-1,-1.7582643E0,-9.6371815E-2,6.9634266E-2,-1.6055969E-4,-8.706954E-2,-3.465547E-2,1.3394533E-1,-2.523954E-2,-1.02311425E-1,-1.1107028E-3,4.9128253E-3,-1.0404986E-1,-8.526062E-1,7.1053576E-1,1.3342037E0,1.1336292E-2,1.4403595E-1,5.1422138E-2,-7.039685E-3,6.0037446E-1,-3.5692924E-1,-7.139687E-1,-3.0773362E-2,-7.304062E-2,2.9571488E-2,-8.874186E-2,9.841471E-2,-7.9429126E-1,1.0110344E0,-1.2126129E-1,1.3815186E0,6.823441E-1,2.0859897E-2,-1.1153324E-1,-3.231221E-2,-8.079562E-2,3.454879E-3,-7.877494E-2,-2.0650081E-2],"split_indices":[0,2,4,1,0,3,1,1,3,0,2,2,0,3,3,0,3,3,0,3,0,4,3,4,0,4,4,0,3,3,0,1,0,2,0,1,3,7,0,0,0,2,2,0,0,0,3,0,0,3,4,3,0,0,0,3,7,3,0,1,0,0,0,3,0,1,0,1,2,0,7,0,0,0,3,3,0,0,3,3,0,3,0,0,0,0,0,2,0,0,0,0,0,0,1,0,2,0,0,2,4,0,0,0,1,0,0,0,0,0,0,0,0,0,0,0,0,0,0,0,1,3,0,0,0,0,1,0,1,0,1,0,3,3,0,0,0,0,0,3,0,0,4,3,0,0,3,0,1,0,1,7,0,0,0,0,0,0,0,0,0,4,0,0,1,3,1,0,0,0,1,3,1,0,0,0,0,0,0,1,5,0,3,4,0,0,0,0,0,0,0],"split_type":[0,0,0,0,0,0,0,0,0,0,0,0,0,0,0,0,0,0,0,0,0,0,0,0,0,0,0,0,0,0,0,0,0,0,0,0,0,0,0,0,0,0,0,0,0,0,0,0,0,0,0,0,0,0,0,0,0,0,0,0,0,0,0,0,0,0,0,0,0,0,0,0,0,0,0,0,0,0,0,0,0,0,0,0,0,0,0,0,0,0,0,0,0,0,0,0,0,0,0,0,0,0,0,0,0,0,0,0,0,0,0,0,0,0,0,0,0,0,0,0,0,0,0,0,0,0,0,0,0,0,0,0,0,0,0,0,0,0,0,0,0,0,0,0,0,0,0,0,0,0,0,0,0,0,0,0,0,0,0,0,0,0,0,0,0,0,0,0,0,0,0,0,0,0,0,0,0,0,0,0,0,0,0,0,0,0,0,0,0,0,0],"sum_hessian":[2.1274192E3,6.010568E2,1.5263624E3,2.4339708E2,3.5765976E2,1.2380585E3,2.8830386E2,2.2326297E2,2.013412E1,1.2519483E2,2.3246492E2,1.2368677E3,1.1908796E0,1.1109405E2,1.7720981E2,6.0586004E0,2.1720436E2,1.913412E1,1E0,2.3026001E2,2.2049234E0,1.2110029E3,2.5864662E1,1.0496402E2,6.1300273E0,3.270049E1,1.4450931E2,2.2049234E0,2.1499944E2,5.9894466E0,1.3144674E1,2.2823613E2,2.0238807E0,1.020683E3,1.9031998E2,2.0692673E1,5.1719885E0,3.444904E1,7.0514984E1,3.284157E0,2.8458703E0,1.0228708E1,2.2471783E1,1.3465868E2,9.85064E0,2.1103526E2,3.964181E0,4.597572E0,1.3918749E0,2.2144443E2,6.79169E0,6.234075E1,9.583422E2,1.7058725E0,1.886141E2,1.8189293E1,2.5033796E0,2.5774767E0,2.5945117E0,4.2102823E0,3.0238756E1,1.1262817E0,2.1578753E0,4.2178035E0,6.010905E0,2.1280756E1,1.1910272E0,7.463496E0,1.27195175E2,1.6415626E0,2.0939369E2,2.5637558E0,1.4004253E0,2.8944675E1,1.9249976E2,4.5379558E0,2.253734E0,3.1916712E1,3.042404E1,2.9915628E0,1.8562254E2,8.328627E0,9.860667E0,1.2072359E0,1.2961437E0,1.4490157E0,1.1284611E0,2.5592856E0,1.6509967E0,1.8806882E0,2.3371153E0,2.0251534E1,1.0292217E0,4.1488695E0,3.3146262E0,3.5108035E0,1.2368437E2,7.48436E0,2.0190933E2,1.3685499E1,1.7881425E2,1.9401025E0,2.5978532E0,1.1657441E0,2.9258295E1,1.7029924E0,1.2885703E0,7.0844436E0,1.2441827E0,1.1796422E0,1.3796434E0,1.4004253E0,1.914201E0,2.4579751E0,1.0528283E0,1.224026E2,1.281768E0,2.156601E0,5.3277593E0,4.6023846E0,9.083115E0,1.460898E2,3.2724457E1,1.164815E0,1.4330382E0,2.3216674E0,2.6936628E1,1.1809617E2,4.306434E0,1.3327415E0,7.7503734E0,8.383781E1,6.2252E1,2.5412296E1,1.5243328E0,2.498496E0,1.807938E0,1.3728254E0,6.377548E0,6.4400697E0,7.7397736E1,1.021199E1,5.204001E1,3.8086421E0,2.1603653E1,3.308113E0,3.069435E0,1.8239776E0,4.616092E0,5.4972897E0,4.7147007E0,6.6807885E0,4.535922E1,2.73647E0,1.0721722E0,1.4302417E0,1.8778715E0,1.8951075E0,1.1743274E0,1.143527E0,3.472565E0,2.955583E0,1.7591177E0,3.4084504E0,3.2723384E0,1.3848376E1,3.1510841E1,1.0961062E0,1.8594769E0,1.1149532E0,2.1573853E0,3.3355951E0,1.0512781E1,2.9617516E1,1.8933262E0,1.157381E0,1.0000043E0,2.0321956E0,1.3033996E0,3.711657E0,6.801124E0,2.6958351E1,2.6591642E0,2.5640752E0,1.1475818E0,5.493618E0,1.3075063E0,1.3904598E0,1.2687044E0,1.4741817E0,1.0898937E0],"tree_param":{"num_deleted":"0","num_feature":"8","num_nodes":"191","size_leaf_vector":"0"}},{"base_weights":[-6.3078076E-1,2.4661583E-1,-9.7750807E-1,9.006784E-1,-1.9580543E-1,-1.1771642E0,-1.24692224E-1,1.0800124E0,-1.0126075E0,1.2386467E0,-9.5463026E-1,-1.1791644E0,4.2341232E-1,-1.0803515E0,4.7849745E-1,-1.093724E0,1.1463544E0,-1.0657303E0,-0E0,-9.76787E-1,9.152012E-1,-1.2036802E0,-1.04836E0,-1.1092192E0,-5.1152784E-1,-1.0235137E0,8.2665133E-1,-9.152012E-1,1.1725191E0,-6.7587566E-1,-1.1836998E0,-9.976153E-1,8.957123E-1,-1.2083935E0,-8.421183E-1,-3.8137663E-2,-1.0573003E0,-9.0124476E-1,-1.1979045E0,3.297061E-2,-9.9455905E-1,-6.817554E-1,-1.1444964E0,9.787685E-1,-1.1466594E0,1.2059448E0,-4.3719438E-1,-1.0712056E0,7.8707397E-1,-1.0106467E0,-9.772627E-2,-1.0221925E0,-1.2195368E0,-1.0321451E0,1.2227292E-2,-1.0742047E0,-6.855558E-1,-2.6827538E-1,-9.809651E-1,-5.254489E-1,8.2493067E-1,-2.5857886E-2,-1.0888367E0,-1.1777406E0,-2.4163759E-1,-6.164477E-1,1.079656E0,-4.407727E-1,1.2259043E0,-9.479426E-1,4.8543534E-1,-1.0825229E0,-8.893103E-1,-5.087592E-1,3.2999718E-1,-1.084617E0,-6.554036E-1,6.9230306E-1,-7.8767675E-1,-5.152887E-1,-1.0805755E0,-1.2690197E-1,-8.6158746E-1,2.4116993E-1,-8.616626E-1,-9.333513E-1,7.4225265E-1,-1.2169402E0,-2.7766314E-1,-1.0382321E0,1.3057554E-2,-8.405219E-1,1.1427422E0,7.7698326E-1,1.2383362E0,-1.2394217E0,-7.3830134E-1,-1.2165381E0,-7.267717E-1,4.9263546E-1,-1.052344E0,-8.1343716E-1,5.2021068E-2,-7.73297E-1,5.97446E-1,-1.6913655E-1,-1.0991435E0,-4.630609E-2,4.410074E-1,4.8543534E-1,-3.7964576E-1,-9.6879774E-1,-2.0882033E-1,1.1702269E0,-7.8233415E-1,-6.38676E-2,1.0580287E0,-6.648227E-2,-8.158572E-1,4.1549614E-1,-8.533204E-1,-1.1350873E0,-3.793621E-1,-7.874046E-1,4.6455446E-1,1.1848685E0,6.328278E-1,-8.058612E-1,2.5412124E-1,3.3988997E-1,-8.500911E-1,-1.0409156E0,-3.951096E-1,9.847816E-1,-6.984194E-2,5.902283E-1,-7.056736E-1,-9.402047E-1,-3.8777885E-1,-1.1201075E0,-3.2246915E-1,9.3844885E-1,-9.916234E-1,1.0345082E0,4.6675503E-2,-1.0004698E0,-2.6836455E-1,6.135438E-1,-5.670326E-1,-7.3549914E-1,7.411565E-1,-1.0448242E0,-3.1594515E-1,3.9999536E-1,-8.9099044E-1,-1.037153E0,-9.69298E-2,-7.578547E-1,1.610032E-1,4.1736394E-1,-6.489614E-1,-3.879655E-1,1.089896E0],"categories":[],"categories_nodes":[],"categories_segments":[],"categories_sizes":[],"default_left":[true,true,true,true,true,true,true,true,true,false,true,true,false,true,true,false,true,true,false,true,false,true,true,true,true,true,true,false,true,true,false,true,false,true,true,false,true,true,false,true,false,true,true,true,false,true,true,false,false,true,true,true,false,false,true,true,true,true,false,false,false,true,false,true,false,true,true,false,true,false,false,false,true,false,false,true,true,false,false,true,false,true,true,true,false,false,false,false,false,false,true,true,true,true,false,false,true,false,true,false,true,false,false,false,false,true,false,false,false,false,false,false,false,true,false,false,false,true,true,false,true,false,false,false,false,false,true,false,true,false,true,true,true,false,false,true,false,true,true,false,false,false,false,false,true,true,true,false,true,false,false,false,true,false,false,false,true,false,false,true,false,false,false],"id":9,"left_children":[1,3,5,7,9,11,13,15,17,-1,19,21,-1,23,25,-1,27,29,-1,31,-1,33,35,37,39,41,43,-1,45,47,-1,49,-1,51,53,-1,55,57,-1,59,-1,61,63,65,-1,67,69,-1,-1,71,73,75,-1,-1,77,79,81,83,-1,-1,-1,85,-1,87,-1,89,91,-1,93,-1,-1,-1,95,-1,-1,97,99,-1,-1,101,-1,103,105,107,-1,-1,-1,-1,-1,-1,109,111,113,115,-1,-1,117,-1,119,-1,121,-1,-1,-1,-1,123,-1,-1,-1,-1,-1,-1,-1,125,-1,-1,-1,127,129,-1,131,-1,-1,-1,-1,-1,133,-1,135,-1,137,139,141,-1,-1,143,-1,145,147,-1,-1,-1,-1,-1,149,151,153,-1,155,-1,-1,-1,157,-1,-1,-1,159,-1,-1,161,-1,-1,-1],"loss_changes":[6.060102E2,1.636153E2,2.4290161E2,7.934949E1,3.6880533E2,4.2020264E0,1.5725488E2,3.1395355E1,1.0791664E0,0E0,1.0068481E1,2.4431152E0,0E0,1.1652908E0,8.837721E1,0E0,1.2039612E1,7.662773E-2,0E0,9.44809E0,0E0,6.2890625E-1,1.6766968E0,7.5684357E-1,1.8613106E0,5.405388E-1,4.2078438E1,0E0,1.1352966E1,4.752175E0,0E0,2.450653E0,0E0,7.277832E-1,2.566821E0,0E0,4.4752502E-1,1.4425564E0,0E0,2.3068626E0,0E0,2.8621922E0,3.7932205E-1,2.1139267E1,0E0,7.0275574E0,2.7347307E0,0E0,0E0,9.0530396E-1,9.081018E-1,6.6082E-1,0E0,0E0,2.6401978E0,7.858276E-2,9.6834326E-1,1.766939E0,0E0,0E0,0E0,4.2965207E0,0E0,4.057083E-1,0E0,2.1917303E0,1.5498337E1,0E0,1.2762451E-1,0E0,0E0,0E0,3.593834E0,0E0,0E0,1.460537E0,5.6404877E0,0E0,0E0,7.058021E-1,0E0,2.2404861E0,1.156414E0,2.2473109E-1,0E0,0E0,0E0,0E0,0E0,0E0,9.780487E-1,1.5372443E-1,7.0858154E0,1.9453759E0,0E0,0E0,3.1791306E0,0E0,2.6474676E0,0E0,5.2233696E-2,0E0,0E0,0E0,0E0,1.645485E0,0E0,0E0,0E0,0E0,0E0,0E0,0E0,1.5800476E-1,0E0,0E0,0E0,1.9853024E0,2.486637E0,0E0,8.443651E-1,0E0,0E0,0E0,0E0,0E0,1.3563702E0,0E0,2.3519514E0,0E0,1.8947983E0,1.9367123E-1,5.5882006E0,0E0,0E0,1.1562877E0,0E0,1.5407181E0,2.2412877E0,0E0,0E0,0E0,0E0,0E0,2.3326232E0,9.037857E-1,2.4557621E0,0E0,1.9916553E0,0E0,0E0,0E0,9.4538414E-1,0E0,0E0,0E0,1.9278812E0,0E0,0E0,2.3889616E0,0E0,0E0,0E0],"parents":[2147483647,0,0,1,1,2,2,3,3,4,4,5,5,6,6,7,7,8,8,10,10,11,11,13,13,14,14,16,16,17,17,19,19,21,21,22,22,23,23,24,24,25,25,26,26,28,28,29,29,31,31,33,33,34,34,36,36,37,37,39,39,41,41,42,42,43,43,45,45,46,46,49,49,50,50,51,51,54,54,55,55,56,56,57,57,61,61,63,63,65,65,66,66,68,68,72,72,75,75,76,76,79,79,81,81,82,82,83,83,90,90,91,91,92,92,93,93,96,96,98,98,100,100,105,105,113,113,117,117,118,118,120,120,126,126,128,128,130,130,131,131,132,132,135,135,137,137,138,138,144,144,145,145,146,146,148,148,152,152,156,156,159,159],"right_children":[2,4,6,8,10,12,14,16,18,-1,20,22,-1,24,26,-1,28,30,-1,32,-1,34,36,38,40,42,44,-1,46,48,-1,50,-1,52,54,-1,56,58,-1,60,-1,62,64,66,-1,68,70,-1,-1,72,74,76,-1,-1,78,80,82,84,-1,-1,-1,86,-1,88,-1,90,92,-1,94,-1,-1,-1,96,-1,-1,98,100,-1,-1,102,-1,104,106,108,-1,-1,-1,-1,-1,-1,110,112,114,116,-1,-1,118,-1,120,-1,122,-1,-1,-1,-1,124,-1,-1,-1,-1,-1,-1,-1,126,-1,-1,-1,128,130,-1,132,-1,-1,-1,-1,-1,134,-1,136,-1,138,140,142,-1,-1,144,-1,146,148,-1,-1,-1,-1,-1,150,152,154,-1,156,-1,-1,-1,158,-1,-1,-1,160,-1,-1,162,-1,-1,-1],"split_conditions":[-5.934731E-1,-1.0585942E0,6.823441E-1,-8.2344866E-1,-1.9992555E0,1.7120028E0,5.1779467E-1,-1.5815427E0,1.5317388E0,1.2386467E-1,2.1828675E0,-1.1107028E-3,4.2341232E-2,1.431592E0,3.0994898E-1,-1.093724E-1,-1.512721E0,-9.6191406E-1,-0E0,1.7620761E0,9.152012E-2,1.372502E0,-5.5330783E-1,1.3657988E0,-5.1242653E-2,1.3657988E0,2.0492535E0,-9.152012E-2,-7.51606E-1,-1.0720754E0,-1.1836999E-1,1.6257783E0,8.957123E-2,-1.0585942E0,1.042629E0,-3.8137664E-3,1.372502E0,-1.3575002E0,-1.1979045E-1,-2.1190351E-1,-9.945591E-2,-2.4822886E-1,2.4986097E-1,4.106573E-1,-1.1466594E-1,-1.0955381E0,6.604624E-1,-1.07120566E-1,7.87074E-2,-1.2361165E0,-2.2082853E-1,1.0310051E0,-1.2195368E-1,-1.0321452E-1,2.4122828E-1,-5.1314265E-1,-7.8165007E-1,7.922269E-1,-9.809651E-2,-5.254489E-2,8.249307E-2,-1.1822368E0,-1.0888367E-1,1.372502E0,-2.4163758E-2,1.1592588E0,-2.4822886E-1,-4.4077273E-2,-1.3575002E0,-9.4794266E-2,4.8543535E-2,-1.0825229E-1,-1.1150234E0,-5.087592E-2,3.299972E-2,3.4284988E-1,1.1011078E0,6.923031E-2,-7.876768E-2,9.964091E-2,-1.0805755E-1,-1.1622075E0,-7.132526E-2,4.3073994E-1,-8.616626E-2,-9.333513E-2,7.422527E-2,-1.2169402E-1,-2.7766315E-2,-1.0382321E-1,1.3050462E0,1.4816654E0,1.372502E0,-9.5496E-1,1.2383362E-1,-1.23942174E-1,-1.1959512E0,-1.2165381E-1,-4.127296E-1,4.9263548E-2,1.5016947E0,-8.134372E-2,5.2021067E-3,-7.73297E-2,5.9744604E-2,-3.5248178E-1,-1.09914355E-1,-4.630609E-3,4.4100743E-2,4.8543535E-2,-3.796458E-2,-9.687977E-2,-2.0882033E-2,1.2139616E0,-7.823341E-2,-6.38676E-3,1.0580287E-1,-2.4822886E-1,-1.0567083E0,4.1549616E-2,7.31979E-1,-1.1350872E-1,-3.793621E-2,-7.874046E-2,4.6455447E-2,1.18486844E-1,2.4122828E-1,-8.058612E-2,1.0110344E0,3.3988997E-2,1.372502E0,7.305651E-1,9.9305296E-1,9.847816E-2,-6.9841943E-3,-2.1081385E-1,-7.056736E-2,1.3342037E0,-4.7355914E-1,-1.12010755E-1,-3.2246914E-2,9.384488E-2,-9.916234E-2,1.0345083E-1,5.002277E-1,1.3715041E0,-1.0352905E0,6.135438E-2,4.0116483E-1,-7.354992E-2,7.411566E-2,-1.0448243E-1,-4.7355914E-1,3.9999537E-2,-8.909904E-2,-1.037153E-1,-9.147948E-1,-7.578547E-2,1.6100321E-2,6.823441E-1,-6.4896144E-2,-3.879655E-2,1.089896E-1],"split_indices":[0,2,4,1,0,3,1,1,3,0,2,4,0,3,3,0,3,3,0,3,0,2,0,4,0,4,4,0,3,3,0,1,0,2,1,0,2,7,0,0,0,2,3,0,0,0,3,0,0,0,3,3,0,0,7,0,3,0,0,0,0,3,0,2,0,1,2,0,7,0,0,0,1,0,0,1,3,0,0,3,0,3,0,0,0,0,0,0,0,0,1,3,2,0,0,0,0,0,0,0,3,0,0,0,0,0,0,0,0,0,0,0,0,0,0,0,0,2,1,0,0,0,0,0,0,0,7,0,5,0,2,3,0,0,0,3,0,1,1,0,0,0,0,0,3,3,0,0,1,0,0,0,1,0,0,0,0,0,0,4,0,0,0],"split_type":[0,0,0,0,0,0,0,0,0,0,0,0,0,0,0,0,0,0,0,0,0,0,0,0,0,0,0,0,0,0,0,0,0,0,0,0,0,0,0,0,0,0,0,0,0,0,0,0,0,0,0,0,0,0,0,0,0,0,0,0,0,0,0,0,0,0,0,0,0,0,0,0,0,0,0,0,0,0,0,0,0,0,0,0,0,0,0,0,0,0,0,0,0,0,0,0,0,0,0,0,0,0,0,0,0,0,0,0,0,0,0,0,0,0,0,0,0,0,0,0,0,0,0,0,0,0,0,0,0,0,0,0,0,0,0,0,0,0,0,0,0,0,0,0,0,0,0,0,0,0,0,0,0,0,0,0,0,0,0,0,0,0,0],"sum_hessian":[1.9902378E3,5.6380725E2,1.4264305E3,2.2707317E2,3.367341E2,1.1555255E3,2.7090497E2,2.0801157E2,1.90616E1,1.162837E2,2.2045038E2,1.1543462E3,1.1793159E0,1.0451937E2,1.6638559E2,5.701818E0,2.0230975E2,1.80616E1,1E0,2.1834074E2,2.1096332E0,9.652365E2,1.8910971E2,9.8567085E1,5.9522877E0,3.0944502E1,1.3544109E2,2.1096332E0,2.0020012E2,5.759006E0,1.2302593E1,2.164009E2,1.9398572E0,9.505037E2,1.4732819E1,1.7051101E0,1.874046E2,3.2803143E1,6.576394E1,3.2361124E0,2.7161756E0,9.825128E0,2.1119375E1,1.2621548E2,9.225613E0,1.9637326E2,3.8268545E0,4.7446465E0,1.0143597E0,2.1319055E2,3.2103362E0,5.890766E1,8.9159607E2,1.1881891E1,2.8509276E0,1.7744597E2,9.958632E0,4.1575937E0,2.864555E1,2.09525E0,1.1408623E0,4.1699457E0,5.655182E0,2.0075708E1,1.0436659E0,7.203565E0,1.1901191E2,2.0992143E0,1.9427405E2,2.4455912E0,1.381263E0,1.2890776E2,8.428279E1,1.5404954E0,1.6698409E0,4.866774E1,1.0239922E1,1.6135825E0,1.2373452E0,2.922646E0,1.7452332E2,2.7984324E0,7.1601996E0,2.5563993E0,1.6011944E0,1.8129216E0,2.3570242E0,1.8900526E1,1.1751823E0,3.924661E0,3.2789044E0,3.3936822E0,1.1561823E2,6.946105E0,1.8732794E2,2.322604E1,6.1056755E1,3.380557E1,1.4862171E1,2.5689292E0,7.6709924E0,1.6314114E0,1.2912347E0,1.4430786E0,1.3553538E0,2.2662642E0,4.8939357E0,1.3633847E0,1.1930146E0,1.381263E0,1.8976412E0,2.377305E0,1.0163772E0,1.1437735E2,1.2408805E0,1.9336444E0,5.0124607E0,6.5112214E0,5.4545536E1,1.2545872E0,1.3607584E1,6.219633E0,1.451359E0,1.0243127E0,1.2419515E0,1.10170906E2,4.2064424E0,1.5115936E0,4.9996276E0,1.3123317E0,5.3233204E1,8.752531E0,4.8550525E0,2.535149E0,1.6712934E0,3.9880974E0,1.0115302E0,4.368454E1,9.548664E0,7.3799915E0,1.37254E0,1.3233551E0,3.5316975E0,1.6974393E0,2.290658E0,3.9639652E1,4.044887E0,1.0819662E0,8.466698E0,1.0495341E0,1.2411239E0,3.6733143E1,2.9065087E0,2.1232471E0,1.9216399E0,3.6301675E0,4.8365297E0,1.2029587E0,1.70355E0,2.63014E0,2.20639E0,1.3894536E0,1.2406865E0],"tree_param":{"num_deleted":"0","num_feature":"8","num_nodes":"163","size_leaf_vector":"0"}},{"base_weights":[-6.116184E-1,2.3770946E-1,-9.48349E-1,8.735556E-1,-1.8863635E-1,-1.1428869E0,-1.2310792E-1,1.0496749E0,-9.7343975E-1,1.2090278E0,-9.129121E-1,-1.1449386E0,4.0281335E-1,-1.0416961E0,4.5825946E-1,-1.0583181E0,1.1150208E0,-1.0275223E0,-0E0,-9.345885E-1,8.812281E-1,-1.1710637E0,-1.0074824E0,-1.0710135E0,-4.8367473E-1,-9.8690194E-1,7.968302E-1,-8.81228E-1,1.1412584E0,-6.378057E-1,-1.1486387E0,-9.550079E-1,8.623305E-1,-1.1760828E0,-7.9960614E-1,-3.574376E-2,-1.0166234E0,-8.580785E-1,-1.1641157E0,3.7333686E-2,-9.5682424E-1,-7.2056633E-1,-1.169531E0,9.4443285E-1,-1.1125286E0,1.1748929E0,-4.158174E-1,-1.0352001E0,7.344017E-1,-9.745387E-1,-3.053775E-1,-9.832286E-1,-1.1878421E0,-9.8555243E-1,8.129238E-3,-9.6628225E-1,-1.210554E0,-9.706858E-1,-3.6290464E-1,-7.561926E-1,5.550632E-1,-3.5385957E-1,-1.0828189E0,-5.857691E-1,1.0445108E0,-5.6174433E-1,1.1932337E0,-9.131423E-1,4.6124563E-1,-1.2099683E0,-9.331332E-1,1.252713E-1,-9.563344E-1,-3.4179497E-1,-1.0119715E0,6.479657E-1,-7.5858307E-1,-9.8006564E-1,-3.409445E-1,-7.5952715E-1,-1.1696632E0,-7.971528E-1,2.9434988E-1,2.8591588E-1,-8.5949796E-1,-1.0024004E0,1.4381722E-2,-8.0565655E-1,1.1076523E0,6.727392E-1,1.2098737E0,-3.0146128E-1,-9.810553E-1,-5.60891E-1,6.387416E-1,-7.898832E-1,2.9010904E-1,-1.0857397E0,-6.215655E-1,-1.0022182E0,-5.3637826E-1,-8.950354E-1,7.3881125E-1,-1.0881408E0,-2.7237025E-3,-2.1948257E-1,-9.208997E-1,1.5445405E0,-7.9122674E-1,8.5551333E-1,-2.5258327E-1,-2.6319438E-1,-9.7254986E-1,4.6124563E-1,-3.5695642E-1,-9.31692E-1,-1.9867127E-1,1.135404E0,-7.5358295E-1,-1.722949E-1,1.024467E0,-1.014352E0,1.0865526E-1,-8.8289297E-1,-1.1137435E0,-1.2295306E-1,1.0527928E0,-1.1762778E0,-7.509838E-1,4.5355895E-1,-1.0138372E0,-1.019608E0,-5.77935E-1,6.628526E-2,-7.47274E-1,-8.662937E-1,7.8477615E-1,1.1507012E0,6.014322E-1,-5.5333417E-2,-2.073156E-1,-7.0188487E-1,3.0874822E-1,-9.329138E-1,-5.765563E-1,-1.1491495E0,-5.7703656E-1,3.9094615E-1,-9.463666E-1,-1.0845219E0,-2.839151E-1,-1.1354101E0,-8.9076275E-1,5.24231E-1,-1.0380843E0,-2.060622E-2,1.2759572E-1,1.1394018E-1,-9.440803E-1,1.6146972E0,-3.03009E-1,9.838138E-1,-7.466902E-2,1.1307213E0,-1.22725805E-2,-5.1129556E-1,-9.6488816E-1,-9.964289E-1,1.6241254E-1,4.8122827E-2,-9.5460814E-1,-1.0064381E0,-3.028099E-1,-1.1487534E0,-3.3373097E-1,7.783452E-3,-9.2509675E-1,-4.956954E-1,4.845298E-1,5.640483E-1,-7.945925E-1,-1.0690168E0,-8.3393675E-1,-1.1264057E0,-2.2392277E-1,-6.230515E-1,7.195787E-1,7.9006964E-1,-6.7984396E-1,-6.9818157E-1,7.63178E-1,-7.621487E-1,-1.124787E0,6.243977E-2,-8.0135316E-1,-3.0301848E-1,1.2799581E0,-2.57527E-1,-9.9227864E-1,-8.101095E-1,-1.1675247E0,-5.8608204E-1,-1.025474E0,-1.9120146E-1,-7.410046E-1,1.0799457E0,1.0638378E-1,-1.0349772E0,-5.5010366E-1,2.4015467E-1,-6.505771E-1,-1.0139688E0,-3.353163E-1,-1.0684932E0,-3.1017983E-1,-1.0949382E0,-1.6668276E-1,-3.211112E-1,-1.0852906E0,-7.9817224E-1,-2.7715424E-1,-1.0956872E0,-3.526679E-1,-9.165087E-1,4.7838992E-1,-6.4719284E-1,2.252368E-1,-1.1835743E0,-4.803737E-1,-8.014378E-2,-1.0956513E0,-5.00049E-1,7.791514E-1,2.6208887E-1,-1.051785E0,9.3332285E-1,-3.2912174E-1,1.6390382E-1,-8.3125716E-1,-7.934444E-1,6.624855E-1,4.5366904E-1,-7.7255744E-1,